digraph Tree {
node [shape=box, style="filled, rounded", color="black", fontname="helvetica"] ;
edge [fontname="helvetica"] ;
0 [label=<range_ThermalConductivity &le; 399.884<br/>squared_error = 1179.271<br/>samples = 17010<br/>value = 34.64>, fillcolor="#f8decc"] ;
1 [label=<mean_Density &le; 5726.833<br/>squared_error = 113.807<br/>samples = 8472<br/>value = 9.573>, fillcolor="#fdf6f1"] ;
0 -> 1 [labeldistance=2.5, labelangle=45, headlabel="True"] ;
2 [label=<entropy_Density &le; 1.082<br/>squared_error = 186.628<br/>samples = 3139<br/>value = 15.585>, fillcolor="#fcf0e8"] ;
1 -> 2 ;
3 [label=<wtd_mean_atomic_mass &le; 16.707<br/>squared_error = 130.891<br/>samples = 1960<br/>value = 11.403>, fillcolor="#fdf4ee"] ;
2 -> 3 ;
4 [label=<wtd_std_ThermalConductivity &le; 33.572<br/>squared_error = 256.713<br/>samples = 223<br/>value = 22.694>, fillcolor="#fbeade"] ;
3 -> 4 ;
5 [label=<std_atomic_radius &le; 96.794<br/>squared_error = 124.346<br/>samples = 115<br/>value = 13.447>, fillcolor="#fcf2eb"] ;
4 -> 5 ;
6 [label=<wtd_range_atomic_mass &le; 9.093<br/>squared_error = 104.897<br/>samples = 99<br/>value = 11.256>, fillcolor="#fdf4ee"] ;
5 -> 6 ;
7 [label=<wtd_entropy_ElectronAffinity &le; 0.126<br/>squared_error = 105.326<br/>samples = 54<br/>value = 8.525>, fillcolor="#fdf7f2"] ;
6 -> 7 ;
8 [label=<mean_atomic_radius &le; 121.25<br/>squared_error = 120.71<br/>samples = 42<br/>value = 10.192>, fillcolor="#fdf5f0"] ;
7 -> 8 ;
9 [label=<squared_error = 176.307<br/>samples = 27<br/>value = 9.348>, fillcolor="#fdf6f1"] ;
8 -> 9 ;
10 [label=<squared_error = 17.047<br/>samples = 15<br/>value = 11.711>, fillcolor="#fdf4ee"] ;
8 -> 10 ;
11 [label=<squared_error = 7.71<br/>samples = 12<br/>value = 2.69>, fillcolor="#fefcfb"] ;
7 -> 11 ;
12 [label=<std_ThermalConductivity &le; 36.067<br/>squared_error = 84.689<br/>samples = 45<br/>value = 14.534>, fillcolor="#fcf1ea"] ;
6 -> 12 ;
13 [label=<squared_error = 126.058<br/>samples = 18<br/>value = 20.511>, fillcolor="#fbece1"] ;
12 -> 13 ;
14 [label=<entropy_fie &le; 1.014<br/>squared_error = 17.411<br/>samples = 27<br/>value = 10.549>, fillcolor="#fdf5ef"] ;
12 -> 14 ;
15 [label=<squared_error = 18.028<br/>samples = 16<br/>value = 8.901>, fillcolor="#fdf7f2"] ;
14 -> 15 ;
16 [label=<squared_error = 6.821<br/>samples = 11<br/>value = 12.945>, fillcolor="#fcf3ec"] ;
14 -> 16 ;
17 [label=<squared_error = 31.299<br/>samples = 16<br/>value = 27.0>, fillcolor="#fae6d7"] ;
5 -> 17 ;
18 [label=<wtd_gmean_atomic_mass &le; 11.906<br/>squared_error = 209.635<br/>samples = 108<br/>value = 32.541>, fillcolor="#f9e0cf"] ;
4 -> 18 ;
19 [label=<squared_error = 79.36<br/>samples = 14<br/>value = 9.718>, fillcolor="#fdf6f1"] ;
18 -> 19 ;
20 [label=<wtd_range_Density &le; 1624.614<br/>squared_error = 139.901<br/>samples = 94<br/>value = 35.94>, fillcolor="#f8ddca"] ;
18 -> 20 ;
21 [label=<mean_ThermalConductivity &le; 71.833<br/>squared_error = 55.606<br/>samples = 84<br/>value = 34.277>, fillcolor="#f8dfcc"] ;
20 -> 21 ;
22 [label=<squared_error = 62.73<br/>samples = 10<br/>value = 26.83>, fillcolor="#fae6d7"] ;
21 -> 22 ;
23 [label=<wtd_std_ElectronAffinity &le; 12.558<br/>squared_error = 46.136<br/>samples = 74<br/>value = 35.284>, fillcolor="#f8decb"] ;
21 -> 23 ;
24 [label=<squared_error = 100.923<br/>samples = 16<br/>value = 31.606>, fillcolor="#f9e1d0"] ;
23 -> 24 ;
25 [label=<std_ThermalConductivity &le; 55.221<br/>squared_error = 26.262<br/>samples = 58<br/>value = 36.298>, fillcolor="#f8ddc9"] ;
23 -> 25 ;
26 [label=<squared_error = 3.156<br/>samples = 16<br/>value = 35.159>, fillcolor="#f8decb"] ;
25 -> 26 ;
27 [label=<squared_error = 34.382<br/>samples = 42<br/>value = 36.732>, fillcolor="#f8dcc9"] ;
25 -> 27 ;
28 [label=<squared_error = 629.597<br/>samples = 10<br/>value = 49.91>, fillcolor="#f5d0b5"] ;
20 -> 28 ;
29 [label=<wtd_std_atomic_radius &le; 79.478<br/>squared_error = 96.269<br/>samples = 1737<br/>value = 9.953>, fillcolor="#fdf6f0"] ;
3 -> 29 ;
30 [label=<entropy_FusionHeat &le; 0.816<br/>squared_error = 76.389<br/>samples = 1631<br/>value = 9.021>, fillcolor="#fdf7f2"] ;
29 -> 30 ;
31 [label=<range_FusionHeat &le; 102.86<br/>squared_error = 40.92<br/>samples = 1027<br/>value = 6.975>, fillcolor="#fef8f5"] ;
30 -> 31 ;
32 [label=<wtd_std_ElectronAffinity &le; 132.853<br/>squared_error = 35.193<br/>samples = 999<br/>value = 6.626>, fillcolor="#fef9f5"] ;
31 -> 32 ;
33 [label=<wtd_range_atomic_radius &le; 64.75<br/>squared_error = 32.273<br/>samples = 961<br/>value = 6.253>, fillcolor="#fef9f6"] ;
32 -> 33 ;
34 [label=<mean_Density &le; 1792.808<br/>squared_error = 20.07<br/>samples = 609<br/>value = 5.253>, fillcolor="#fefaf7"] ;
33 -> 34 ;
35 [label=<wtd_mean_Valence &le; 2.356<br/>squared_error = 80.676<br/>samples = 34<br/>value = 11.591>, fillcolor="#fdf4ee"] ;
34 -> 35 ;
36 [label=<squared_error = 171.899<br/>samples = 10<br/>value = 17.784>, fillcolor="#fceee5"] ;
35 -> 36 ;
37 [label=<wtd_std_Density &le; 1970.098<br/>squared_error = 20.022<br/>samples = 24<br/>value = 9.01>, fillcolor="#fdf7f2"] ;
35 -> 37 ;
38 [label=<squared_error = 24.291<br/>samples = 10<br/>value = 5.359>, fillcolor="#fefaf7"] ;
37 -> 38 ;
39 [label=<squared_error = 0.651<br/>samples = 14<br/>value = 11.618>, fillcolor="#fdf4ee"] ;
37 -> 39 ;
40 [label=<mean_FusionHeat &le; 36.835<br/>squared_error = 13.971<br/>samples = 575<br/>value = 4.878>, fillcolor="#fefaf8"] ;
34 -> 40 ;
41 [label=<range_Density &le; 11701.0<br/>squared_error = 12.173<br/>samples = 486<br/>value = 4.441>, fillcolor="#fefbf8"] ;
40 -> 41 ;
42 [label=<std_Density &le; 4254.38<br/>squared_error = 12.475<br/>samples = 448<br/>value = 4.668>, fillcolor="#fefbf8"] ;
41 -> 42 ;
43 [label=<wtd_std_atomic_radius &le; 74.245<br/>squared_error = 9.934<br/>samples = 419<br/>value = 4.458>, fillcolor="#fefbf8"] ;
42 -> 43 ;
44 [label=<mean_ThermalConductivity &le; 27.842<br/>squared_error = 9.67<br/>samples = 402<br/>value = 4.619>, fillcolor="#fefbf8"] ;
43 -> 44 ;
45 [label=<wtd_std_fie &le; 348.187<br/>squared_error = 12.774<br/>samples = 159<br/>value = 5.535>, fillcolor="#fefaf7"] ;
44 -> 45 ;
46 [label=<wtd_range_atomic_radius &le; 44.393<br/>squared_error = 10.995<br/>samples = 145<br/>value = 5.189>, fillcolor="#fefaf7"] ;
45 -> 46 ;
47 [label=<entropy_ThermalConductivity &le; 0.681<br/>squared_error = 12.372<br/>samples = 101<br/>value = 5.892>, fillcolor="#fef9f6"] ;
46 -> 47 ;
48 [label=<wtd_mean_atomic_radius &le; 178.15<br/>squared_error = 11.738<br/>samples = 91<br/>value = 6.261>, fillcolor="#fef9f6"] ;
47 -> 48 ;
49 [label=<mean_FusionHeat &le; 4.149<br/>squared_error = 6.8<br/>samples = 81<br/>value = 5.964>, fillcolor="#fef9f6"] ;
48 -> 49 ;
50 [label=<squared_error = 6.705<br/>samples = 14<br/>value = 7.92>, fillcolor="#fdf8f3"] ;
49 -> 50 ;
51 [label=<wtd_entropy_atomic_mass &le; 0.641<br/>squared_error = 5.854<br/>samples = 67<br/>value = 5.555>, fillcolor="#fefaf7"] ;
49 -> 51 ;
52 [label=<squared_error = 5.641<br/>samples = 16<br/>value = 3.358>, fillcolor="#fefcfa"] ;
51 -> 52 ;
53 [label=<wtd_range_fie &le; 170.41<br/>squared_error = 3.93<br/>samples = 51<br/>value = 6.245>, fillcolor="#fef9f6"] ;
51 -> 53 ;
54 [label=<squared_error = 2.614<br/>samples = 17<br/>value = 7.452>, fillcolor="#fef8f4"] ;
53 -> 54 ;
55 [label=<wtd_range_fie &le; 298.857<br/>squared_error = 3.494<br/>samples = 34<br/>value = 5.641>, fillcolor="#fefaf7"] ;
53 -> 55 ;
56 [label=<squared_error = 3.932<br/>samples = 17<br/>value = 4.775>, fillcolor="#fefbf8"] ;
55 -> 56 ;
57 [label=<squared_error = 1.555<br/>samples = 17<br/>value = 6.507>, fillcolor="#fef9f5"] ;
55 -> 57 ;
58 [label=<squared_error = 45.244<br/>samples = 10<br/>value = 8.664>, fillcolor="#fdf7f2"] ;
48 -> 58 ;
59 [label=<squared_error = 5.656<br/>samples = 10<br/>value = 2.539>, fillcolor="#fffdfb"] ;
47 -> 59 ;
60 [label=<wtd_range_ElectronAffinity &le; 66.525<br/>squared_error = 4.097<br/>samples = 44<br/>value = 3.576>, fillcolor="#fefcfa"] ;
46 -> 60 ;
61 [label=<mean_atomic_mass &le; 54.38<br/>squared_error = 3.044<br/>samples = 29<br/>value = 4.444>, fillcolor="#fefbf8"] ;
60 -> 61 ;
62 [label=<squared_error = 1.514<br/>samples = 14<br/>value = 5.376>, fillcolor="#fefaf7"] ;
61 -> 62 ;
63 [label=<squared_error = 2.906<br/>samples = 15<br/>value = 3.574>, fillcolor="#fefcfa"] ;
61 -> 63 ;
64 [label=<squared_error = 1.858<br/>samples = 15<br/>value = 1.897>, fillcolor="#fffdfc"] ;
60 -> 64 ;
65 [label=<squared_error = 17.108<br/>samples = 14<br/>value = 9.12>, fillcolor="#fdf6f2"] ;
45 -> 65 ;
66 [label=<wtd_mean_ElectronAffinity &le; 48.51<br/>squared_error = 6.731<br/>samples = 243<br/>value = 4.02>, fillcolor="#fefbf9"] ;
44 -> 66 ;
67 [label=<mean_ThermalConductivity &le; 126.5<br/>squared_error = 1.636<br/>samples = 47<br/>value = 2.016>, fillcolor="#fffdfc"] ;
66 -> 67 ;
68 [label=<range_atomic_radius &le; 81.5<br/>squared_error = 1.759<br/>samples = 30<br/>value = 2.525>, fillcolor="#fffdfb"] ;
67 -> 68 ;
69 [label=<squared_error = 2.446<br/>samples = 13<br/>value = 3.212>, fillcolor="#fefcfa"] ;
68 -> 69 ;
70 [label=<squared_error = 0.598<br/>samples = 17<br/>value = 2.0>, fillcolor="#fffdfc"] ;
68 -> 70 ;
71 [label=<squared_error = 0.15<br/>samples = 17<br/>value = 1.116>, fillcolor="#fffefd"] ;
67 -> 71 ;
72 [label=<mean_Density &le; 2411.807<br/>squared_error = 6.759<br/>samples = 196<br/>value = 4.5>, fillcolor="#fefbf8"] ;
66 -> 72 ;
73 [label=<mean_ElectronAffinity &le; 73.643<br/>squared_error = 6.737<br/>samples = 41<br/>value = 6.25>, fillcolor="#fef9f6"] ;
72 -> 73 ;
74 [label=<wtd_entropy_atomic_radius &le; 1.059<br/>squared_error = 5.754<br/>samples = 31<br/>value = 5.656>, fillcolor="#fefaf7"] ;
73 -> 74 ;
75 [label=<squared_error = 11.124<br/>samples = 11<br/>value = 4.355>, fillcolor="#fefbf9"] ;
74 -> 75 ;
76 [label=<squared_error = 1.359<br/>samples = 20<br/>value = 6.371>, fillcolor="#fef9f6"] ;
74 -> 76 ;
77 [label=<squared_error = 5.303<br/>samples = 10<br/>value = 8.09>, fillcolor="#fdf7f3"] ;
73 -> 77 ;
78 [label=<wtd_range_fie &le; 589.39<br/>squared_error = 5.741<br/>samples = 155<br/>value = 4.037>, fillcolor="#fefbf9"] ;
72 -> 78 ;
79 [label=<wtd_std_Valence &le; 1.638<br/>squared_error = 4.434<br/>samples = 136<br/>value = 3.713>, fillcolor="#fefcfa"] ;
78 -> 79 ;
80 [label=<range_ThermalConductivity &le; 132.5<br/>squared_error = 4.322<br/>samples = 124<br/>value = 3.906>, fillcolor="#fefbf9"] ;
79 -> 80 ;
81 [label=<wtd_entropy_ThermalConductivity &le; 0.585<br/>squared_error = 2.147<br/>samples = 55<br/>value = 3.208>, fillcolor="#fefcfa"] ;
80 -> 81 ;
82 [label=<wtd_mean_atomic_mass &le; 54.13<br/>squared_error = 1.948<br/>samples = 26<br/>value = 2.386>, fillcolor="#fffdfc"] ;
81 -> 82 ;
83 [label=<squared_error = 0.442<br/>samples = 10<br/>value = 1.354>, fillcolor="#fffefd"] ;
82 -> 83 ;
84 [label=<squared_error = 1.805<br/>samples = 16<br/>value = 3.032>, fillcolor="#fefcfb"] ;
82 -> 84 ;
85 [label=<wtd_std_atomic_radius &le; 46.408<br/>squared_error = 1.178<br/>samples = 29<br/>value = 3.945>, fillcolor="#fefbf9"] ;
81 -> 85 ;
86 [label=<squared_error = 1.178<br/>samples = 10<br/>value = 5.001>, fillcolor="#fefaf8"] ;
85 -> 86 ;
87 [label=<squared_error = 0.281<br/>samples = 19<br/>value = 3.389>, fillcolor="#fefcfa"] ;
85 -> 87 ;
88 [label=<entropy_atomic_radius &le; 1.035<br/>squared_error = 5.358<br/>samples = 69<br/>value = 4.462>, fillcolor="#fefbf8"] ;
80 -> 88 ;
89 [label=<squared_error = 14.671<br/>samples = 17<br/>value = 6.084>, fillcolor="#fef9f6"] ;
88 -> 89 ;
90 [label=<mean_atomic_radius &le; 148.5<br/>squared_error = 1.173<br/>samples = 52<br/>value = 3.932>, fillcolor="#fefbf9"] ;
88 -> 90 ;
91 [label=<wtd_std_Valence &le; 0.971<br/>squared_error = 1.158<br/>samples = 42<br/>value = 4.125>, fillcolor="#fefbf9"] ;
90 -> 91 ;
92 [label=<wtd_range_fie &le; 538.53<br/>squared_error = 0.967<br/>samples = 23<br/>value = 3.787>, fillcolor="#fefbf9"] ;
91 -> 92 ;
93 [label=<squared_error = 0.156<br/>samples = 10<br/>value = 4.165>, fillcolor="#fefbf9"] ;
92 -> 93 ;
94 [label=<squared_error = 1.398<br/>samples = 13<br/>value = 3.497>, fillcolor="#fefcfa"] ;
92 -> 94 ;
95 [label=<squared_error = 1.084<br/>samples = 19<br/>value = 4.533>, fillcolor="#fefbf8"] ;
91 -> 95 ;
96 [label=<squared_error = 0.424<br/>samples = 10<br/>value = 3.123>, fillcolor="#fefcfa"] ;
90 -> 96 ;
97 [label=<squared_error = 1.256<br/>samples = 12<br/>value = 1.725>, fillcolor="#fffdfc"] ;
79 -> 97 ;
98 [label=<squared_error = 8.97<br/>samples = 19<br/>value = 6.355>, fillcolor="#fef9f6"] ;
78 -> 98 ;
99 [label=<squared_error = 1.09<br/>samples = 17<br/>value = 0.656>, fillcolor="#fffefe"] ;
43 -> 99 ;
100 [label=<wtd_range_Density &le; 2560.84<br/>squared_error = 39.382<br/>samples = 29<br/>value = 7.698>, fillcolor="#fef8f4"] ;
42 -> 100 ;
101 [label=<squared_error = 56.042<br/>samples = 10<br/>value = 12.62>, fillcolor="#fdf3ec"] ;
100 -> 101 ;
102 [label=<squared_error = 11.153<br/>samples = 19<br/>value = 5.108>, fillcolor="#fefaf7"] ;
100 -> 102 ;
103 [label=<entropy_ElectronAffinity &le; 0.874<br/>squared_error = 0.824<br/>samples = 38<br/>value = 1.762>, fillcolor="#fffdfc"] ;
41 -> 103 ;
104 [label=<squared_error = 0.409<br/>samples = 28<br/>value = 1.42>, fillcolor="#fffefd"] ;
103 -> 104 ;
105 [label=<squared_error = 0.74<br/>samples = 10<br/>value = 2.72>, fillcolor="#fefcfb"] ;
103 -> 105 ;
106 [label=<wtd_mean_atomic_radius &le; 124.929<br/>squared_error = 17.036<br/>samples = 89<br/>value = 7.267>, fillcolor="#fef8f4"] ;
40 -> 106 ;
107 [label=<gmean_Density &le; 3224.924<br/>squared_error = 13.445<br/>samples = 75<br/>value = 6.425>, fillcolor="#fef9f6"] ;
106 -> 107 ;
108 [label=<wtd_gmean_Valence &le; 3.695<br/>squared_error = 3.571<br/>samples = 26<br/>value = 4.027>, fillcolor="#fefbf9"] ;
107 -> 108 ;
109 [label=<squared_error = 1.101<br/>samples = 14<br/>value = 3.099>, fillcolor="#fefcfa"] ;
108 -> 109 ;
110 [label=<squared_error = 4.275<br/>samples = 12<br/>value = 5.11>, fillcolor="#fefaf7"] ;
108 -> 110 ;
111 [label=<wtd_std_atomic_radius &le; 61.351<br/>squared_error = 14.013<br/>samples = 49<br/>value = 7.698>, fillcolor="#fef8f4"] ;
107 -> 111 ;
112 [label=<wtd_std_atomic_radius &le; 51.139<br/>squared_error = 13.169<br/>samples = 39<br/>value = 7.023>, fillcolor="#fef8f5"] ;
111 -> 112 ;
113 [label=<wtd_std_atomic_mass &le; 35.762<br/>squared_error = 14.853<br/>samples = 20<br/>value = 8.53>, fillcolor="#fdf7f2"] ;
112 -> 113 ;
114 [label=<squared_error = 2.052<br/>samples = 10<br/>value = 6.933>, fillcolor="#fef9f5"] ;
113 -> 114 ;
115 [label=<squared_error = 22.556<br/>samples = 10<br/>value = 10.126>, fillcolor="#fdf6f0"] ;
113 -> 115 ;
116 [label=<squared_error = 6.494<br/>samples = 19<br/>value = 5.438>, fillcolor="#fefaf7"] ;
112 -> 116 ;
117 [label=<squared_error = 8.6<br/>samples = 10<br/>value = 10.33>, fillcolor="#fdf5f0"] ;
111 -> 117 ;
118 [label=<squared_error = 12.143<br/>samples = 14<br/>value = 11.776>, fillcolor="#fdf4ee"] ;
106 -> 118 ;
119 [label=<wtd_std_atomic_radius &le; 22.193<br/>squared_error = 48.659<br/>samples = 352<br/>value = 7.984>, fillcolor="#fdf8f3"] ;
33 -> 119 ;
120 [label=<wtd_mean_Valence &le; 4.065<br/>squared_error = 7.634<br/>samples = 101<br/>value = 3.795>, fillcolor="#fefbf9"] ;
119 -> 120 ;
121 [label=<wtd_mean_FusionHeat &le; 7.721<br/>squared_error = 3.23<br/>samples = 51<br/>value = 1.89>, fillcolor="#fffdfc"] ;
120 -> 121 ;
122 [label=<wtd_entropy_ThermalConductivity &le; 0.24<br/>squared_error = 3.586<br/>samples = 20<br/>value = 2.856>, fillcolor="#fefcfb"] ;
121 -> 122 ;
123 [label=<squared_error = 2.434<br/>samples = 10<br/>value = 3.995>, fillcolor="#fefbf9"] ;
122 -> 123 ;
124 [label=<squared_error = 2.144<br/>samples = 10<br/>value = 1.717>, fillcolor="#fffdfd"] ;
122 -> 124 ;
125 [label=<wtd_std_atomic_radius &le; 4.047<br/>squared_error = 2.01<br/>samples = 31<br/>value = 1.267>, fillcolor="#fffefd"] ;
121 -> 125 ;
126 [label=<squared_error = 3.648<br/>samples = 12<br/>value = 2.076>, fillcolor="#fffdfc"] ;
125 -> 126 ;
127 [label=<squared_error = 0.3<br/>samples = 19<br/>value = 0.756>, fillcolor="#fffefe"] ;
125 -> 127 ;
128 [label=<mean_atomic_mass &le; 40.52<br/>squared_error = 4.652<br/>samples = 50<br/>value = 5.738>, fillcolor="#fefaf7"] ;
120 -> 128 ;
129 [label=<squared_error = 1.236<br/>samples = 14<br/>value = 3.299>, fillcolor="#fefcfa"] ;
128 -> 129 ;
130 [label=<wtd_range_fie &le; 523.16<br/>squared_error = 2.768<br/>samples = 36<br/>value = 6.686>, fillcolor="#fef9f5"] ;
128 -> 130 ;
131 [label=<wtd_entropy_Density &le; 0.533<br/>squared_error = 0.874<br/>samples = 26<br/>value = 6.059>, fillcolor="#fef9f6"] ;
130 -> 131 ;
132 [label=<squared_error = 0.613<br/>samples = 11<br/>value = 6.686>, fillcolor="#fef9f5"] ;
131 -> 132 ;
133 [label=<squared_error = 0.566<br/>samples = 15<br/>value = 5.599>, fillcolor="#fefaf7"] ;
131 -> 133 ;
134 [label=<squared_error = 4.014<br/>samples = 10<br/>value = 8.316>, fillcolor="#fdf7f3"] ;
130 -> 134 ;
135 [label=<wtd_range_ElectronAffinity &le; 13.243<br/>squared_error = 55.265<br/>samples = 251<br/>value = 9.669>, fillcolor="#fdf6f1"] ;
119 -> 135 ;
136 [label=<wtd_gmean_ThermalConductivity &le; 45.68<br/>squared_error = 208.331<br/>samples = 29<br/>value = 17.118>, fillcolor="#fcefe6"] ;
135 -> 136 ;
137 [label=<squared_error = 562.759<br/>samples = 10<br/>value = 20.262>, fillcolor="#fbece1"] ;
136 -> 137 ;
138 [label=<squared_error = 13.847<br/>samples = 19<br/>value = 15.463>, fillcolor="#fcf0e8"] ;
136 -> 138 ;
139 [label=<gmean_Density &le; 4615.309<br/>squared_error = 27.077<br/>samples = 222<br/>value = 8.696>, fillcolor="#fdf7f2"] ;
135 -> 139 ;
140 [label=<wtd_std_atomic_radius &le; 65.453<br/>squared_error = 22.678<br/>samples = 197<br/>value = 7.972>, fillcolor="#fdf8f3"] ;
139 -> 140 ;
141 [label=<wtd_entropy_ThermalConductivity &le; 0.59<br/>squared_error = 13.941<br/>samples = 116<br/>value = 6.115>, fillcolor="#fef9f6"] ;
140 -> 141 ;
142 [label=<wtd_range_FusionHeat &le; 14.667<br/>squared_error = 6.839<br/>samples = 60<br/>value = 4.612>, fillcolor="#fefbf8"] ;
141 -> 142 ;
143 [label=<squared_error = 2.674<br/>samples = 18<br/>value = 2.952>, fillcolor="#fefcfb"] ;
142 -> 143 ;
144 [label=<mean_atomic_radius &le; 126.083<br/>squared_error = 6.937<br/>samples = 42<br/>value = 5.323>, fillcolor="#fefaf7"] ;
142 -> 144 ;
145 [label=<squared_error = 6.467<br/>samples = 14<br/>value = 7.284>, fillcolor="#fef8f4"] ;
144 -> 145 ;
146 [label=<wtd_entropy_ThermalConductivity &le; 0.223<br/>squared_error = 4.288<br/>samples = 28<br/>value = 4.343>, fillcolor="#fefbf9"] ;
144 -> 146 ;
147 [label=<squared_error = 3.501<br/>samples = 16<br/>value = 5.302>, fillcolor="#fefaf7"] ;
146 -> 147 ;
148 [label=<squared_error = 2.471<br/>samples = 12<br/>value = 3.063>, fillcolor="#fefcfb"] ;
146 -> 148 ;
149 [label=<wtd_mean_Valence &le; 4.25<br/>squared_error = 16.535<br/>samples = 56<br/>value = 7.726>, fillcolor="#fef8f4"] ;
141 -> 149 ;
150 [label=<wtd_std_Density &le; 3385.599<br/>squared_error = 4.443<br/>samples = 36<br/>value = 6.189>, fillcolor="#fef9f6"] ;
149 -> 150 ;
151 [label=<squared_error = 2.52<br/>samples = 10<br/>value = 3.702>, fillcolor="#fefcfa"] ;
150 -> 151 ;
152 [label=<wtd_std_Valence &le; 0.826<br/>squared_error = 1.888<br/>samples = 26<br/>value = 7.146>, fillcolor="#fef8f4"] ;
150 -> 152 ;
153 [label=<squared_error = 1.955<br/>samples = 14<br/>value = 6.636>, fillcolor="#fef9f5"] ;
152 -> 153 ;
154 [label=<squared_error = 1.154<br/>samples = 12<br/>value = 7.74>, fillcolor="#fef8f4"] ;
152 -> 154 ;
155 [label=<wtd_entropy_FusionHeat &le; 0.661<br/>squared_error = 26.398<br/>samples = 20<br/>value = 10.492>, fillcolor="#fdf5f0"] ;
149 -> 155 ;
156 [label=<squared_error = 21.11<br/>samples = 10<br/>value = 9.124>, fillcolor="#fdf6f2"] ;
155 -> 156 ;
157 [label=<squared_error = 27.942<br/>samples = 10<br/>value = 11.86>, fillcolor="#fdf4ee"] ;
155 -> 157 ;
158 [label=<std_ElectronAffinity &le; 32.372<br/>squared_error = 23.178<br/>samples = 81<br/>value = 10.632>, fillcolor="#fdf5ef"] ;
140 -> 158 ;
159 [label=<squared_error = 12.664<br/>samples = 12<br/>value = 4.72>, fillcolor="#fefbf8"] ;
158 -> 159 ;
160 [label=<gmean_atomic_radius &le; 99.325<br/>squared_error = 17.87<br/>samples = 69<br/>value = 11.66>, fillcolor="#fdf4ee"] ;
158 -> 160 ;
161 [label=<squared_error = 27.937<br/>samples = 14<br/>value = 14.904>, fillcolor="#fcf1e9"] ;
160 -> 161 ;
162 [label=<wtd_range_atomic_mass &le; 39.949<br/>squared_error = 11.948<br/>samples = 55<br/>value = 10.835>, fillcolor="#fdf5ef"] ;
160 -> 162 ;
163 [label=<mean_ThermalConductivity &le; 61.333<br/>squared_error = 8.272<br/>samples = 29<br/>value = 12.003>, fillcolor="#fdf4ed"] ;
162 -> 163 ;
164 [label=<squared_error = 11.697<br/>samples = 16<br/>value = 12.896>, fillcolor="#fdf3ec"] ;
163 -> 164 ;
165 [label=<squared_error = 1.869<br/>samples = 13<br/>value = 10.904>, fillcolor="#fdf5ef"] ;
163 -> 165 ;
166 [label=<wtd_range_Valence &le; 1.497<br/>squared_error = 12.83<br/>samples = 26<br/>value = 9.532>, fillcolor="#fdf6f1"] ;
162 -> 166 ;
167 [label=<squared_error = 4.158<br/>samples = 15<br/>value = 10.601>, fillcolor="#fdf5ef"] ;
166 -> 167 ;
168 [label=<squared_error = 20.973<br/>samples = 11<br/>value = 8.075>, fillcolor="#fdf7f3"] ;
166 -> 168 ;
169 [label=<squared_error = 25.059<br/>samples = 25<br/>value = 14.402>, fillcolor="#fcf1ea"] ;
139 -> 169 ;
170 [label=<gmean_ElectronAffinity &le; 34.469<br/>squared_error = 16.76<br/>samples = 38<br/>value = 16.047>, fillcolor="#fcf0e7"] ;
32 -> 170 ;
171 [label=<squared_error = 13.075<br/>samples = 11<br/>value = 21.364>, fillcolor="#fbebdf"] ;
170 -> 171 ;
172 [label=<wtd_std_atomic_mass &le; 32.815<br/>squared_error = 2.056<br/>samples = 27<br/>value = 13.881>, fillcolor="#fcf2eb"] ;
170 -> 172 ;
173 [label=<squared_error = 1.604<br/>samples = 14<br/>value = 14.436>, fillcolor="#fcf1ea"] ;
172 -> 173 ;
174 [label=<squared_error = 1.857<br/>samples = 13<br/>value = 13.285>, fillcolor="#fcf3eb"] ;
172 -> 174 ;
175 [label=<wtd_std_FusionHeat &le; 29.933<br/>squared_error = 86.051<br/>samples = 28<br/>value = 19.42>, fillcolor="#fbede2"] ;
31 -> 175 ;
176 [label=<squared_error = 79.001<br/>samples = 10<br/>value = 27.79>, fillcolor="#fae5d6"] ;
175 -> 176 ;
177 [label=<squared_error = 29.422<br/>samples = 18<br/>value = 14.77>, fillcolor="#fcf1e9"] ;
175 -> 177 ;
178 [label=<entropy_Valence &le; 0.908<br/>squared_error = 117.467<br/>samples = 604<br/>value = 12.501>, fillcolor="#fdf3ed"] ;
30 -> 178 ;
179 [label=<wtd_gmean_Density &le; 4319.758<br/>squared_error = 10.956<br/>samples = 44<br/>value = 31.508>, fillcolor="#f9e1d0"] ;
178 -> 179 ;
180 [label=<squared_error = 30.012<br/>samples = 10<br/>value = 34.17>, fillcolor="#f8dfcd"] ;
179 -> 180 ;
181 [label=<wtd_gmean_fie &le; 739.59<br/>squared_error = 2.654<br/>samples = 34<br/>value = 30.725>, fillcolor="#f9e2d2"] ;
179 -> 181 ;
182 [label=<squared_error = 2.822<br/>samples = 11<br/>value = 29.327>, fillcolor="#f9e3d4"] ;
181 -> 182 ;
183 [label=<wtd_gmean_ElectronAffinity &le; 62.666<br/>squared_error = 1.192<br/>samples = 23<br/>value = 31.393>, fillcolor="#f9e2d1"] ;
181 -> 183 ;
184 [label=<squared_error = 1.439<br/>samples = 13<br/>value = 30.958>, fillcolor="#f9e2d1"] ;
183 -> 184 ;
185 [label=<squared_error = 0.304<br/>samples = 10<br/>value = 31.96>, fillcolor="#f9e1d0"] ;
183 -> 185 ;
186 [label=<wtd_gmean_atomic_mass &le; 66.55<br/>squared_error = 95.221<br/>samples = 560<br/>value = 11.008>, fillcolor="#fdf5ef"] ;
178 -> 186 ;
187 [label=<wtd_gmean_atomic_mass &le; 16.716<br/>squared_error = 71.375<br/>samples = 430<br/>value = 9.171>, fillcolor="#fdf6f1"] ;
186 -> 187 ;
188 [label=<entropy_ThermalConductivity &le; 0.739<br/>squared_error = 264.888<br/>samples = 21<br/>value = 24.716>, fillcolor="#fae8db"] ;
187 -> 188 ;
189 [label=<squared_error = 89.538<br/>samples = 11<br/>value = 35.2>, fillcolor="#f8decb"] ;
188 -> 189 ;
190 [label=<squared_error = 203.881<br/>samples = 10<br/>value = 13.184>, fillcolor="#fcf3ec"] ;
188 -> 190 ;
191 [label=<wtd_std_ElectronAffinity &le; 119.005<br/>squared_error = 48.394<br/>samples = 409<br/>value = 8.373>, fillcolor="#fdf7f3"] ;
187 -> 191 ;
192 [label=<wtd_mean_Density &le; 4531.885<br/>squared_error = 43.477<br/>samples = 388<br/>value = 7.81>, fillcolor="#fdf8f4"] ;
191 -> 192 ;
193 [label=<gmean_atomic_mass &le; 37.439<br/>squared_error = 30.255<br/>samples = 200<br/>value = 5.145>, fillcolor="#fefaf7"] ;
192 -> 193 ;
194 [label=<wtd_mean_atomic_radius &le; 122.367<br/>squared_error = 83.665<br/>samples = 44<br/>value = 8.885>, fillcolor="#fdf7f2"] ;
193 -> 194 ;
195 [label=<squared_error = 1.188<br/>samples = 16<br/>value = 3.719>, fillcolor="#fefcfa"] ;
194 -> 195 ;
196 [label=<wtd_mean_atomic_radius &le; 124.13<br/>squared_error = 106.824<br/>samples = 28<br/>value = 11.838>, fillcolor="#fdf4ee"] ;
194 -> 196 ;
197 [label=<squared_error = 225.891<br/>samples = 11<br/>value = 16.112>, fillcolor="#fcf0e7"] ;
196 -> 197 ;
198 [label=<squared_error = 10.313<br/>samples = 17<br/>value = 9.072>, fillcolor="#fdf6f2"] ;
196 -> 198 ;
199 [label=<entropy_Density &le; 0.867<br/>squared_error = 10.13<br/>samples = 156<br/>value = 4.09>, fillcolor="#fefbf9"] ;
193 -> 199 ;
200 [label=<squared_error = 9.811<br/>samples = 12<br/>value = 9.788>, fillcolor="#fdf6f1"] ;
199 -> 200 ;
201 [label=<wtd_gmean_Valence &le; 3.202<br/>squared_error = 7.225<br/>samples = 144<br/>value = 3.615>, fillcolor="#fefcfa"] ;
199 -> 201 ;
202 [label=<wtd_gmean_atomic_mass &le; 37.98<br/>squared_error = 2.0<br/>samples = 43<br/>value = 1.554>, fillcolor="#fffefd"] ;
201 -> 202 ;
203 [label=<wtd_range_atomic_mass &le; 19.448<br/>squared_error = 0.329<br/>samples = 25<br/>value = 0.73>, fillcolor="#fffefe"] ;
202 -> 203 ;
204 [label=<squared_error = 0.056<br/>samples = 15<br/>value = 0.338>, fillcolor="#ffffff"] ;
203 -> 204 ;
205 [label=<squared_error = 0.161<br/>samples = 10<br/>value = 1.319>, fillcolor="#fffefd"] ;
203 -> 205 ;
206 [label=<squared_error = 2.072<br/>samples = 18<br/>value = 2.698>, fillcolor="#fefcfb"] ;
202 -> 206 ;
207 [label=<wtd_mean_Density &le; 4061.312<br/>squared_error = 6.871<br/>samples = 101<br/>value = 4.492>, fillcolor="#fefbf8"] ;
201 -> 207 ;
208 [label=<wtd_range_Density &le; 1955.759<br/>squared_error = 12.152<br/>samples = 43<br/>value = 5.468>, fillcolor="#fefaf7"] ;
207 -> 208 ;
209 [label=<wtd_gmean_atomic_mass &le; 51.297<br/>squared_error = 2.035<br/>samples = 22<br/>value = 4.07>, fillcolor="#fefbf9"] ;
208 -> 209 ;
210 [label=<squared_error = 1.205<br/>samples = 11<br/>value = 4.808>, fillcolor="#fefbf8"] ;
209 -> 210 ;
211 [label=<squared_error = 1.776<br/>samples = 11<br/>value = 3.332>, fillcolor="#fefcfa"] ;
209 -> 211 ;
212 [label=<squared_error = 18.56<br/>samples = 21<br/>value = 6.932>, fillcolor="#fef9f5"] ;
208 -> 212 ;
213 [label=<wtd_mean_atomic_mass &le; 86.344<br/>squared_error = 1.727<br/>samples = 58<br/>value = 3.769>, fillcolor="#fefbf9"] ;
207 -> 213 ;
214 [label=<gmean_atomic_mass &le; 49.129<br/>squared_error = 1.774<br/>samples = 31<br/>value = 3.078>, fillcolor="#fefcfa"] ;
213 -> 214 ;
215 [label=<squared_error = 1.944<br/>samples = 18<br/>value = 3.47>, fillcolor="#fefcfa"] ;
214 -> 215 ;
216 [label=<squared_error = 1.032<br/>samples = 13<br/>value = 2.535>, fillcolor="#fffdfb"] ;
214 -> 216 ;
217 [label=<wtd_mean_Valence &le; 4.29<br/>squared_error = 0.496<br/>samples = 27<br/>value = 4.562>, fillcolor="#fefbf8"] ;
213 -> 217 ;
218 [label=<squared_error = 0.261<br/>samples = 12<br/>value = 4.312>, fillcolor="#fefbf9"] ;
217 -> 218 ;
219 [label=<squared_error = 0.593<br/>samples = 15<br/>value = 4.762>, fillcolor="#fefbf8"] ;
217 -> 219 ;
220 [label=<wtd_mean_Density &le; 4713.8<br/>squared_error = 41.943<br/>samples = 188<br/>value = 10.646>, fillcolor="#fdf5ef"] ;
192 -> 220 ;
221 [label=<squared_error = 124.16<br/>samples = 21<br/>value = 16.942>, fillcolor="#fcefe6"] ;
220 -> 221 ;
222 [label=<wtd_entropy_FusionHeat &le; 0.89<br/>squared_error = 25.993<br/>samples = 167<br/>value = 9.854>, fillcolor="#fdf6f0"] ;
220 -> 222 ;
223 [label=<std_ThermalConductivity &le; 97.656<br/>squared_error = 25.44<br/>samples = 134<br/>value = 10.915>, fillcolor="#fdf5ef"] ;
222 -> 223 ;
224 [label=<gmean_Density &le; 4061.321<br/>squared_error = 22.955<br/>samples = 124<br/>value = 11.485>, fillcolor="#fdf4ee"] ;
223 -> 224 ;
225 [label=<wtd_entropy_ElectronAffinity &le; 0.723<br/>squared_error = 40.493<br/>samples = 39<br/>value = 13.733>, fillcolor="#fcf2eb"] ;
224 -> 225 ;
226 [label=<squared_error = 56.944<br/>samples = 10<br/>value = 18.317>, fillcolor="#fbeee4"] ;
225 -> 226 ;
227 [label=<wtd_gmean_ElectronAffinity &le; 43.016<br/>squared_error = 25.077<br/>samples = 29<br/>value = 12.153>, fillcolor="#fdf4ed"] ;
225 -> 227 ;
228 [label=<squared_error = 42.538<br/>samples = 12<br/>value = 13.935>, fillcolor="#fcf2ea"] ;
227 -> 228 ;
229 [label=<squared_error = 8.926<br/>samples = 17<br/>value = 10.895>, fillcolor="#fdf5ef"] ;
227 -> 229 ;
230 [label=<wtd_std_FusionHeat &le; 6.848<br/>squared_error = 11.524<br/>samples = 85<br/>value = 10.453>, fillcolor="#fdf5f0"] ;
224 -> 230 ;
231 [label=<mean_Valence &le; 4.167<br/>squared_error = 8.672<br/>samples = 35<br/>value = 8.4>, fillcolor="#fdf7f3"] ;
230 -> 231 ;
232 [label=<wtd_std_fie &le; 48.211<br/>squared_error = 4.328<br/>samples = 20<br/>value = 9.66>, fillcolor="#fdf6f1"] ;
231 -> 232 ;
233 [label=<squared_error = 2.354<br/>samples = 10<br/>value = 10.767>, fillcolor="#fdf5ef"] ;
232 -> 233 ;
234 [label=<squared_error = 3.848<br/>samples = 10<br/>value = 8.552>, fillcolor="#fdf7f2"] ;
232 -> 234 ;
235 [label=<squared_error = 9.527<br/>samples = 15<br/>value = 6.72>, fillcolor="#fef9f5"] ;
231 -> 235 ;
236 [label=<wtd_mean_ElectronAffinity &le; 69.251<br/>squared_error = 8.504<br/>samples = 50<br/>value = 11.89>, fillcolor="#fdf4ed"] ;
230 -> 236 ;
237 [label=<wtd_std_Valence &le; 0.794<br/>squared_error = 9.408<br/>samples = 30<br/>value = 10.802>, fillcolor="#fdf5ef"] ;
236 -> 237 ;
238 [label=<squared_error = 9.824<br/>samples = 16<br/>value = 9.383>, fillcolor="#fdf6f1"] ;
237 -> 238 ;
239 [label=<squared_error = 4.006<br/>samples = 14<br/>value = 12.423>, fillcolor="#fdf3ed"] ;
237 -> 239 ;
240 [label=<wtd_mean_Density &le; 5242.913<br/>squared_error = 2.702<br/>samples = 20<br/>value = 13.523>, fillcolor="#fcf2eb"] ;
236 -> 240 ;
241 [label=<squared_error = 2.983<br/>samples = 10<br/>value = 14.497>, fillcolor="#fcf1ea"] ;
240 -> 241 ;
242 [label=<squared_error = 0.525<br/>samples = 10<br/>value = 12.55>, fillcolor="#fdf3ec"] ;
240 -> 242 ;
243 [label=<squared_error = 2.402<br/>samples = 10<br/>value = 3.856>, fillcolor="#fefbf9"] ;
223 -> 243 ;
244 [label=<wtd_mean_Valence &le; 4.364<br/>squared_error = 5.103<br/>samples = 33<br/>value = 5.546>, fillcolor="#fefaf7"] ;
222 -> 244 ;
245 [label=<squared_error = 3.631<br/>samples = 16<br/>value = 4.095>, fillcolor="#fefbf9"] ;
244 -> 245 ;
246 [label=<squared_error = 2.641<br/>samples = 17<br/>value = 6.912>, fillcolor="#fef9f5"] ;
244 -> 246 ;
247 [label=<range_FusionHeat &le; 22.89<br/>squared_error = 25.372<br/>samples = 21<br/>value = 18.767>, fillcolor="#fbede3"] ;
191 -> 247 ;
248 [label=<squared_error = 4.414<br/>samples = 10<br/>value = 14.65>, fillcolor="#fcf1e9"] ;
247 -> 248 ;
249 [label=<squared_error = 15.012<br/>samples = 11<br/>value = 22.509>, fillcolor="#fbeade"] ;
247 -> 249 ;
250 [label=<gmean_ElectronAffinity &le; 30.392<br/>squared_error = 126.032<br/>samples = 130<br/>value = 17.083>, fillcolor="#fcefe6"] ;
186 -> 250 ;
251 [label=<squared_error = 475.181<br/>samples = 15<br/>value = 32.567>, fillcolor="#f9e0cf"] ;
250 -> 251 ;
252 [label=<wtd_entropy_FusionHeat &le; 0.632<br/>squared_error = 45.14<br/>samples = 115<br/>value = 15.063>, fillcolor="#fcf1e9"] ;
250 -> 252 ;
253 [label=<wtd_mean_FusionHeat &le; 24.609<br/>squared_error = 3.595<br/>samples = 81<br/>value = 18.53>, fillcolor="#fbeee4"] ;
252 -> 253 ;
254 [label=<range_ElectronAffinity &le; 77.5<br/>squared_error = 1.596<br/>samples = 71<br/>value = 18.871>, fillcolor="#fbede3"] ;
253 -> 254 ;
255 [label=<wtd_gmean_fie &le; 651.44<br/>squared_error = 1.236<br/>samples = 56<br/>value = 19.201>, fillcolor="#fbede3"] ;
254 -> 255 ;
256 [label=<wtd_range_atomic_mass &le; 68.214<br/>squared_error = 1.173<br/>samples = 43<br/>value = 18.943>, fillcolor="#fbede3"] ;
255 -> 256 ;
257 [label=<wtd_entropy_ElectronAffinity &le; 0.462<br/>squared_error = 1.331<br/>samples = 30<br/>value = 18.675>, fillcolor="#fbede3"] ;
256 -> 257 ;
258 [label=<squared_error = 0.318<br/>samples = 11<br/>value = 18.377>, fillcolor="#fbeee4"] ;
257 -> 258 ;
259 [label=<squared_error = 1.836<br/>samples = 19<br/>value = 18.847>, fillcolor="#fbede3"] ;
257 -> 259 ;
260 [label=<squared_error = 0.262<br/>samples = 13<br/>value = 19.562>, fillcolor="#fbede2"] ;
256 -> 260 ;
261 [label=<squared_error = 0.495<br/>samples = 13<br/>value = 20.053>, fillcolor="#fbece1"] ;
255 -> 261 ;
262 [label=<squared_error = 1.02<br/>samples = 15<br/>value = 17.64>, fillcolor="#fceee5"] ;
254 -> 262 ;
263 [label=<squared_error = 11.111<br/>samples = 10<br/>value = 16.11>, fillcolor="#fcf0e7"] ;
253 -> 263 ;
264 [label=<wtd_gmean_Density &le; 5349.049<br/>squared_error = 47.251<br/>samples = 34<br/>value = 6.803>, fillcolor="#fef9f5"] ;
252 -> 264 ;
265 [label=<squared_error = 1.595<br/>samples = 16<br/>value = 3.24>, fillcolor="#fefcfa"] ;
264 -> 265 ;
266 [label=<squared_error = 66.517<br/>samples = 18<br/>value = 9.971>, fillcolor="#fdf6f0"] ;
264 -> 266 ;
267 [label=<entropy_FusionHeat &le; 0.984<br/>squared_error = 183.104<br/>samples = 106<br/>value = 24.295>, fillcolor="#fae8db"] ;
29 -> 267 ;
268 [label=<wtd_std_ThermalConductivity &le; 22.427<br/>squared_error = 55.973<br/>samples = 21<br/>value = 6.742>, fillcolor="#fef9f5"] ;
267 -> 268 ;
269 [label=<squared_error = 7.764<br/>samples = 11<br/>value = 2.513>, fillcolor="#fffdfb"] ;
268 -> 269 ;
270 [label=<squared_error = 67.677<br/>samples = 10<br/>value = 11.395>, fillcolor="#fdf4ee"] ;
268 -> 270 ;
271 [label=<wtd_std_ElectronAffinity &le; 49.593<br/>squared_error = 119.593<br/>samples = 85<br/>value = 28.631>, fillcolor="#f9e4d5"] ;
267 -> 271 ;
272 [label=<wtd_range_fie &le; 749.776<br/>squared_error = 22.105<br/>samples = 74<br/>value = 25.871>, fillcolor="#fae7d9"] ;
271 -> 272 ;
273 [label=<squared_error = 7.628<br/>samples = 18<br/>value = 20.456>, fillcolor="#fbece1"] ;
272 -> 273 ;
274 [label=<wtd_entropy_fie &le; 0.753<br/>squared_error = 14.302<br/>samples = 56<br/>value = 27.612>, fillcolor="#fae5d6"] ;
272 -> 274 ;
275 [label=<wtd_entropy_Valence &le; 1.054<br/>squared_error = 12.932<br/>samples = 42<br/>value = 28.249>, fillcolor="#fae4d5"] ;
274 -> 275 ;
276 [label=<wtd_mean_FusionHeat &le; 3.478<br/>squared_error = 15.659<br/>samples = 32<br/>value = 27.792>, fillcolor="#fae5d6"] ;
275 -> 276 ;
277 [label=<squared_error = 16.839<br/>samples = 21<br/>value = 28.25>, fillcolor="#fae4d5"] ;
276 -> 277 ;
278 [label=<squared_error = 12.243<br/>samples = 11<br/>value = 26.918>, fillcolor="#fae6d7"] ;
276 -> 278 ;
279 [label=<squared_error = 1.403<br/>samples = 10<br/>value = 29.71>, fillcolor="#f9e3d3"] ;
275 -> 279 ;
280 [label=<squared_error = 13.54<br/>samples = 14<br/>value = 25.7>, fillcolor="#fae7d9"] ;
274 -> 280 ;
281 [label=<squared_error = 379.369<br/>samples = 11<br/>value = 47.2>, fillcolor="#f6d3b9"] ;
271 -> 281 ;
282 [label=<wtd_range_ElectronAffinity &le; 32.638<br/>squared_error = 201.875<br/>samples = 1179<br/>value = 22.537>, fillcolor="#fbeade"] ;
2 -> 282 ;
283 [label=<entropy_Density &le; 1.136<br/>squared_error = 170.297<br/>samples = 759<br/>value = 27.4>, fillcolor="#fae5d7"] ;
282 -> 283 ;
284 [label=<range_atomic_radius &le; 155.5<br/>squared_error = 156.664<br/>samples = 338<br/>value = 33.421>, fillcolor="#f9e0ce"] ;
283 -> 284 ;
285 [label=<wtd_mean_fie &le; 760.555<br/>squared_error = 81.413<br/>samples = 234<br/>value = 28.647>, fillcolor="#f9e4d5"] ;
284 -> 285 ;
286 [label=<squared_error = 10.695<br/>samples = 11<br/>value = 9.123>, fillcolor="#fdf6f2"] ;
285 -> 286 ;
287 [label=<wtd_entropy_ThermalConductivity &le; 0.905<br/>squared_error = 65.17<br/>samples = 223<br/>value = 29.61>, fillcolor="#f9e3d3"] ;
285 -> 287 ;
288 [label=<wtd_mean_atomic_radius &le; 105.383<br/>squared_error = 62.5<br/>samples = 111<br/>value = 33.535>, fillcolor="#f9e0ce"] ;
287 -> 288 ;
289 [label=<wtd_range_Density &le; 1333.2<br/>squared_error = 86.156<br/>samples = 30<br/>value = 27.418>, fillcolor="#fae5d7"] ;
288 -> 289 ;
290 [label=<squared_error = 112.16<br/>samples = 15<br/>value = 24.978>, fillcolor="#fae8da"] ;
289 -> 290 ;
291 [label=<squared_error = 48.245<br/>samples = 15<br/>value = 29.858>, fillcolor="#f9e3d3"] ;
289 -> 291 ;
292 [label=<wtd_range_fie &le; 249.706<br/>squared_error = 34.748<br/>samples = 81<br/>value = 35.8>, fillcolor="#f8ddca"] ;
288 -> 292 ;
293 [label=<squared_error = 9.76<br/>samples = 14<br/>value = 43.543>, fillcolor="#f7d6bf"] ;
292 -> 293 ;
294 [label=<wtd_entropy_ElectronAffinity &le; 0.675<br/>squared_error = 24.826<br/>samples = 67<br/>value = 34.183>, fillcolor="#f8dfcd"] ;
292 -> 294 ;
295 [label=<wtd_mean_atomic_radius &le; 105.68<br/>squared_error = 6.306<br/>samples = 57<br/>value = 35.24>, fillcolor="#f8decb"] ;
294 -> 295 ;
296 [label=<wtd_mean_atomic_radius &le; 105.551<br/>squared_error = 7.747<br/>samples = 25<br/>value = 33.639>, fillcolor="#f8dfcd"] ;
295 -> 296 ;
297 [label=<squared_error = 5.788<br/>samples = 10<br/>value = 34.32>, fillcolor="#f8dfcc"] ;
296 -> 297 ;
298 [label=<squared_error = 8.539<br/>samples = 15<br/>value = 33.185>, fillcolor="#f9e0ce"] ;
296 -> 298 ;
299 [label=<wtd_mean_atomic_mass &le; 15.328<br/>squared_error = 1.613<br/>samples = 32<br/>value = 36.491>, fillcolor="#f8ddc9"] ;
295 -> 299 ;
300 [label=<squared_error = 1.346<br/>samples = 13<br/>value = 37.015>, fillcolor="#f8dcc8"] ;
299 -> 300 ;
301 [label=<squared_error = 1.479<br/>samples = 19<br/>value = 36.132>, fillcolor="#f8ddca"] ;
299 -> 301 ;
302 [label=<squared_error = 87.688<br/>samples = 10<br/>value = 28.155>, fillcolor="#fae5d5"] ;
294 -> 302 ;
303 [label=<wtd_gmean_ThermalConductivity &le; 6.171<br/>squared_error = 37.416<br/>samples = 112<br/>value = 25.72>, fillcolor="#fae7d9"] ;
287 -> 303 ;
304 [label=<wtd_range_atomic_mass &le; 34.085<br/>squared_error = 31.5<br/>samples = 50<br/>value = 23.191>, fillcolor="#fbe9dd"] ;
303 -> 304 ;
305 [label=<squared_error = 47.994<br/>samples = 10<br/>value = 17.502>, fillcolor="#fcefe5"] ;
304 -> 305 ;
306 [label=<wtd_std_FusionHeat &le; 10.258<br/>squared_error = 17.262<br/>samples = 40<br/>value = 24.613>, fillcolor="#fae8db"] ;
304 -> 306 ;
307 [label=<wtd_gmean_ElectronAffinity &le; 56.969<br/>squared_error = 8.225<br/>samples = 27<br/>value = 25.856>, fillcolor="#fae7d9"] ;
306 -> 307 ;
308 [label=<squared_error = 10.83<br/>samples = 14<br/>value = 25.379>, fillcolor="#fae7da"] ;
307 -> 308 ;
309 [label=<squared_error = 4.911<br/>samples = 13<br/>value = 26.369>, fillcolor="#fae6d8"] ;
307 -> 309 ;
310 [label=<squared_error = 26.17<br/>samples = 13<br/>value = 22.034>, fillcolor="#fbeade"] ;
306 -> 310 ;
311 [label=<wtd_range_Valence &le; 1.059<br/>squared_error = 32.873<br/>samples = 62<br/>value = 27.759>, fillcolor="#fae5d6"] ;
303 -> 311 ;
312 [label=<squared_error = 33.681<br/>samples = 10<br/>value = 23.615>, fillcolor="#fae9dc"] ;
311 -> 312 ;
313 [label=<wtd_entropy_atomic_mass &le; 1.01<br/>squared_error = 28.78<br/>samples = 52<br/>value = 28.556>, fillcolor="#f9e4d5"] ;
311 -> 313 ;
314 [label=<wtd_std_ThermalConductivity &le; 70.423<br/>squared_error = 21.354<br/>samples = 28<br/>value = 30.157>, fillcolor="#f9e3d2"] ;
313 -> 314 ;
315 [label=<squared_error = 19.597<br/>samples = 12<br/>value = 32.408>, fillcolor="#f9e1cf"] ;
314 -> 315 ;
316 [label=<squared_error = 16.02<br/>samples = 16<br/>value = 28.469>, fillcolor="#f9e4d5"] ;
314 -> 316 ;
317 [label=<wtd_mean_atomic_mass &le; 69.9<br/>squared_error = 30.961<br/>samples = 24<br/>value = 26.688>, fillcolor="#fae6d8"] ;
313 -> 317 ;
318 [label=<squared_error = 29.555<br/>samples = 14<br/>value = 24.35>, fillcolor="#fae8db"] ;
317 -> 318 ;
319 [label=<squared_error = 14.57<br/>samples = 10<br/>value = 29.96>, fillcolor="#f9e3d3"] ;
317 -> 319 ;
320 [label=<wtd_gmean_ThermalConductivity &le; 6.087<br/>squared_error = 159.289<br/>samples = 104<br/>value = 44.164>, fillcolor="#f6d6be"] ;
284 -> 320 ;
321 [label=<wtd_std_ThermalConductivity &le; 31.093<br/>squared_error = 203.728<br/>samples = 29<br/>value = 35.314>, fillcolor="#f8decb"] ;
320 -> 321 ;
322 [label=<squared_error = 247.37<br/>samples = 19<br/>value = 32.891>, fillcolor="#f9e0ce"] ;
321 -> 322 ;
323 [label=<squared_error = 88.434<br/>samples = 10<br/>value = 39.92>, fillcolor="#f7d9c4"] ;
321 -> 323 ;
324 [label=<entropy_Density &le; 1.088<br/>squared_error = 100.119<br/>samples = 75<br/>value = 47.585>, fillcolor="#f6d2b9"] ;
320 -> 324 ;
325 [label=<squared_error = 114.982<br/>samples = 14<br/>value = 39.379>, fillcolor="#f7dac5"] ;
324 -> 325 ;
326 [label=<wtd_std_fie &le; 270.451<br/>squared_error = 77.703<br/>samples = 61<br/>value = 49.469>, fillcolor="#f5d1b6"] ;
324 -> 326 ;
327 [label=<squared_error = 220.9<br/>samples = 10<br/>value = 58.14>, fillcolor="#f4c8a9"] ;
326 -> 327 ;
328 [label=<wtd_entropy_atomic_mass &le; 1.159<br/>squared_error = 31.991<br/>samples = 51<br/>value = 47.769>, fillcolor="#f6d2b8"] ;
326 -> 328 ;
329 [label=<squared_error = 17.868<br/>samples = 18<br/>value = 50.872>, fillcolor="#f5cfb4"] ;
328 -> 329 ;
330 [label=<wtd_entropy_FusionHeat &le; 0.987<br/>squared_error = 31.575<br/>samples = 33<br/>value = 46.076>, fillcolor="#f6d4bb"] ;
328 -> 330 ;
331 [label=<squared_error = 15.834<br/>samples = 17<br/>value = 48.0>, fillcolor="#f6d2b8"] ;
330 -> 331 ;
332 [label=<squared_error = 40.186<br/>samples = 16<br/>value = 44.031>, fillcolor="#f6d6be"] ;
330 -> 332 ;
333 [label=<wtd_entropy_Density &le; 0.956<br/>squared_error = 128.767<br/>samples = 421<br/>value = 22.566>, fillcolor="#fbeade"] ;
283 -> 333 ;
334 [label=<wtd_mean_ElectronAffinity &le; 46.512<br/>squared_error = 72.894<br/>samples = 97<br/>value = 30.939>, fillcolor="#f9e2d1"] ;
333 -> 334 ;
335 [label=<wtd_range_Density &le; 3105.944<br/>squared_error = 55.328<br/>samples = 87<br/>value = 32.422>, fillcolor="#f9e1cf"] ;
334 -> 335 ;
336 [label=<wtd_range_atomic_radius &le; 54.726<br/>squared_error = 32.257<br/>samples = 77<br/>value = 34.01>, fillcolor="#f8dfcd"] ;
335 -> 336 ;
337 [label=<wtd_std_fie &le; 171.86<br/>squared_error = 24.808<br/>samples = 63<br/>value = 32.782>, fillcolor="#f9e0cf"] ;
336 -> 337 ;
338 [label=<wtd_range_fie &le; 345.881<br/>squared_error = 27.956<br/>samples = 24<br/>value = 29.365>, fillcolor="#f9e3d4"] ;
337 -> 338 ;
339 [label=<squared_error = 23.206<br/>samples = 10<br/>value = 31.83>, fillcolor="#f9e1d0"] ;
338 -> 339 ;
340 [label=<squared_error = 23.907<br/>samples = 14<br/>value = 27.604>, fillcolor="#fae5d6"] ;
338 -> 340 ;
341 [label=<wtd_gmean_ElectronAffinity &le; 34.351<br/>squared_error = 11.264<br/>samples = 39<br/>value = 34.884>, fillcolor="#f8decc"] ;
337 -> 341 ;
342 [label=<wtd_std_ElectronAffinity &le; 29.983<br/>squared_error = 8.78<br/>samples = 26<br/>value = 35.945>, fillcolor="#f8ddca"] ;
341 -> 342 ;
343 [label=<squared_error = 16.484<br/>samples = 11<br/>value = 35.06>, fillcolor="#f8decb"] ;
342 -> 343 ;
344 [label=<squared_error = 2.135<br/>samples = 15<br/>value = 36.593>, fillcolor="#f8ddc9"] ;
342 -> 344 ;
345 [label=<squared_error = 9.487<br/>samples = 13<br/>value = 32.764>, fillcolor="#f9e0cf"] ;
341 -> 345 ;
346 [label=<squared_error = 28.454<br/>samples = 14<br/>value = 39.536>, fillcolor="#f7dac5"] ;
336 -> 346 ;
347 [label=<squared_error = 64.216<br/>samples = 10<br/>value = 20.201>, fillcolor="#fbece1"] ;
335 -> 347 ;
348 [label=<squared_error = 40.139<br/>samples = 10<br/>value = 18.038>, fillcolor="#fceee4"] ;
334 -> 348 ;
349 [label=<wtd_range_FusionHeat &le; 10.988<br/>squared_error = 118.217<br/>samples = 324<br/>value = 20.059>, fillcolor="#fbece1"] ;
333 -> 349 ;
350 [label=<wtd_entropy_atomic_mass &le; 1.461<br/>squared_error = 110.45<br/>samples = 258<br/>value = 22.496>, fillcolor="#fbeade"] ;
349 -> 350 ;
351 [label=<wtd_entropy_atomic_radius &le; 1.372<br/>squared_error = 101.588<br/>samples = 248<br/>value = 21.8>, fillcolor="#fbebdf"] ;
350 -> 351 ;
352 [label=<wtd_gmean_ElectronAffinity &le; 57.629<br/>squared_error = 105.222<br/>samples = 120<br/>value = 25.039>, fillcolor="#fae7da"] ;
351 -> 352 ;
353 [label=<wtd_gmean_fie &le; 756.651<br/>squared_error = 83.901<br/>samples = 107<br/>value = 23.447>, fillcolor="#fae9dc"] ;
352 -> 353 ;
354 [label=<squared_error = 22.319<br/>samples = 17<br/>value = 32.2>, fillcolor="#f9e1cf"] ;
353 -> 354 ;
355 [label=<wtd_std_fie &le; 160.492<br/>squared_error = 78.33<br/>samples = 90<br/>value = 21.794>, fillcolor="#fbebdf"] ;
353 -> 355 ;
356 [label=<squared_error = 26.096<br/>samples = 17<br/>value = 28.571>, fillcolor="#f9e4d5"] ;
355 -> 356 ;
357 [label=<wtd_std_FusionHeat &le; 8.892<br/>squared_error = 77.309<br/>samples = 73<br/>value = 20.216>, fillcolor="#fbece1"] ;
355 -> 357 ;
358 [label=<wtd_gmean_fie &le; 762.839<br/>squared_error = 57.586<br/>samples = 27<br/>value = 15.496>, fillcolor="#fcf0e8"] ;
357 -> 358 ;
359 [label=<squared_error = 30.725<br/>samples = 11<br/>value = 20.798>, fillcolor="#fbebe0"] ;
358 -> 359 ;
360 [label=<squared_error = 43.436<br/>samples = 16<br/>value = 11.851>, fillcolor="#fdf4ee"] ;
358 -> 360 ;
361 [label=<wtd_range_Valence &le; 1.243<br/>squared_error = 68.133<br/>samples = 46<br/>value = 22.987>, fillcolor="#fbe9dd"] ;
357 -> 361 ;
362 [label=<std_atomic_radius &le; 58.272<br/>squared_error = 41.339<br/>samples = 34<br/>value = 26.099>, fillcolor="#fae6d8"] ;
361 -> 362 ;
363 [label=<squared_error = 34.248<br/>samples = 10<br/>value = 21.3>, fillcolor="#fbebe0"] ;
362 -> 363 ;
364 [label=<wtd_range_fie &le; 252.372<br/>squared_error = 30.702<br/>samples = 24<br/>value = 28.098>, fillcolor="#fae5d6"] ;
362 -> 364 ;
365 [label=<squared_error = 21.572<br/>samples = 14<br/>value = 25.271>, fillcolor="#fae7da"] ;
364 -> 365 ;
366 [label=<squared_error = 16.641<br/>samples = 10<br/>value = 32.055>, fillcolor="#f9e1d0"] ;
364 -> 366 ;
367 [label=<squared_error = 38.865<br/>samples = 12<br/>value = 14.169>, fillcolor="#fcf2ea"] ;
361 -> 367 ;
368 [label=<squared_error = 88.267<br/>samples = 13<br/>value = 38.138>, fillcolor="#f8dbc7"] ;
352 -> 368 ;
369 [label=<gmean_Valence &le; 3.117<br/>squared_error = 79.132<br/>samples = 128<br/>value = 18.764>, fillcolor="#fbede3"] ;
351 -> 369 ;
370 [label=<entropy_fie &le; 1.565<br/>squared_error = 63.474<br/>samples = 111<br/>value = 20.489>, fillcolor="#fbece1"] ;
369 -> 370 ;
371 [label=<squared_error = 84.649<br/>samples = 13<br/>value = 28.912>, fillcolor="#f9e4d4"] ;
370 -> 371 ;
372 [label=<wtd_gmean_Density &le; 815.83<br/>squared_error = 50.005<br/>samples = 98<br/>value = 19.371>, fillcolor="#fbede2"] ;
370 -> 372 ;
373 [label=<wtd_std_ElectronAffinity &le; 53.751<br/>squared_error = 38.163<br/>samples = 62<br/>value = 21.085>, fillcolor="#fbebe0"] ;
372 -> 373 ;
374 [label=<squared_error = 32.806<br/>samples = 15<br/>value = 16.211>, fillcolor="#fcf0e7"] ;
373 -> 374 ;
375 [label=<wtd_gmean_ThermalConductivity &le; 6.149<br/>squared_error = 29.873<br/>samples = 47<br/>value = 22.64>, fillcolor="#fbeade"] ;
373 -> 375 ;
376 [label=<wtd_gmean_ElectronAffinity &le; 56.586<br/>squared_error = 32.262<br/>samples = 31<br/>value = 21.095>, fillcolor="#fbebe0"] ;
375 -> 376 ;
377 [label=<wtd_std_fie &le; 300.081<br/>squared_error = 28.351<br/>samples = 20<br/>value = 19.263>, fillcolor="#fbede3"] ;
376 -> 377 ;
378 [label=<squared_error = 9.075<br/>samples = 10<br/>value = 21.926>, fillcolor="#fbeadf"] ;
377 -> 378 ;
379 [label=<squared_error = 33.444<br/>samples = 10<br/>value = 16.6>, fillcolor="#fcefe7"] ;
377 -> 379 ;
380 [label=<squared_error = 22.167<br/>samples = 11<br/>value = 24.427>, fillcolor="#fae8db"] ;
376 -> 380 ;
381 [label=<squared_error = 11.666<br/>samples = 16<br/>value = 25.632>, fillcolor="#fae7d9"] ;
375 -> 381 ;
382 [label=<wtd_range_atomic_radius &le; 47.975<br/>squared_error = 56.639<br/>samples = 36<br/>value = 16.421>, fillcolor="#fcf0e7"] ;
372 -> 382 ;
383 [label=<squared_error = 29.164<br/>samples = 10<br/>value = 10.16>, fillcolor="#fdf5f0"] ;
382 -> 383 ;
384 [label=<wtd_entropy_atomic_radius &le; 1.426<br/>squared_error = 46.329<br/>samples = 26<br/>value = 18.829>, fillcolor="#fbede3"] ;
382 -> 384 ;
385 [label=<squared_error = 60.998<br/>samples = 14<br/>value = 21.256>, fillcolor="#fbebe0"] ;
384 -> 385 ;
386 [label=<squared_error = 14.333<br/>samples = 12<br/>value = 15.998>, fillcolor="#fcf0e7"] ;
384 -> 386 ;
387 [label=<squared_error = 35.185<br/>samples = 17<br/>value = 7.505>, fillcolor="#fef8f4"] ;
369 -> 387 ;
388 [label=<squared_error = 20.583<br/>samples = 10<br/>value = 39.748>, fillcolor="#f7dac4"] ;
350 -> 388 ;
389 [label=<std_ElectronAffinity &le; 26.299<br/>squared_error = 34.589<br/>samples = 66<br/>value = 10.532>, fillcolor="#fdf5ef"] ;
349 -> 389 ;
390 [label=<squared_error = 68.528<br/>samples = 10<br/>value = 18.835>, fillcolor="#fbede3"] ;
389 -> 390 ;
391 [label=<range_Density &le; 6674.0<br/>squared_error = 14.018<br/>samples = 56<br/>value = 9.049>, fillcolor="#fdf7f2"] ;
389 -> 391 ;
392 [label=<gmean_fie &le; 777.407<br/>squared_error = 3.564<br/>samples = 25<br/>value = 6.776>, fillcolor="#fef9f5"] ;
391 -> 392 ;
393 [label=<squared_error = 3.531<br/>samples = 10<br/>value = 5.171>, fillcolor="#fefaf7"] ;
392 -> 393 ;
394 [label=<squared_error = 0.724<br/>samples = 15<br/>value = 7.846>, fillcolor="#fdf8f3"] ;
392 -> 394 ;
395 [label=<wtd_mean_ElectronAffinity &le; 43.0<br/>squared_error = 14.923<br/>samples = 31<br/>value = 10.882>, fillcolor="#fdf5ef"] ;
391 -> 395 ;
396 [label=<squared_error = 13.752<br/>samples = 11<br/>value = 8.758>, fillcolor="#fdf7f2"] ;
395 -> 396 ;
397 [label=<wtd_range_atomic_radius &le; 39.183<br/>squared_error = 11.723<br/>samples = 20<br/>value = 12.05>, fillcolor="#fdf4ed"] ;
395 -> 397 ;
398 [label=<squared_error = 0.634<br/>samples = 10<br/>value = 10.259>, fillcolor="#fdf5f0"] ;
397 -> 398 ;
399 [label=<squared_error = 16.4<br/>samples = 10<br/>value = 13.84>, fillcolor="#fcf2eb"] ;
397 -> 399 ;
400 [label=<mean_ElectronAffinity &le; 51.51<br/>squared_error = 138.99<br/>samples = 420<br/>value = 13.75>, fillcolor="#fcf2eb"] ;
282 -> 400 ;
401 [label=<wtd_std_ElectronAffinity &le; 62.706<br/>squared_error = 198.059<br/>samples = 49<br/>value = 28.806>, fillcolor="#f9e4d4"] ;
400 -> 401 ;
402 [label=<wtd_std_atomic_radius &le; 33.763<br/>squared_error = 106.732<br/>samples = 37<br/>value = 24.068>, fillcolor="#fae8db"] ;
401 -> 402 ;
403 [label=<squared_error = 97.921<br/>samples = 15<br/>value = 29.647>, fillcolor="#f9e3d3"] ;
402 -> 403 ;
404 [label=<entropy_fie &le; 1.745<br/>squared_error = 77.047<br/>samples = 22<br/>value = 20.264>, fillcolor="#fbece1"] ;
402 -> 404 ;
405 [label=<squared_error = 48.372<br/>samples = 10<br/>value = 14.84>, fillcolor="#fcf1e9"] ;
404 -> 405 ;
406 [label=<squared_error = 56.001<br/>samples = 12<br/>value = 24.783>, fillcolor="#fae8da"] ;
404 -> 406 ;
407 [label=<squared_error = 196.951<br/>samples = 12<br/>value = 43.417>, fillcolor="#f7d6bf"] ;
401 -> 407 ;
408 [label=<wtd_std_ThermalConductivity &le; 18.434<br/>squared_error = 97.294<br/>samples = 371<br/>value = 11.761>, fillcolor="#fdf4ee"] ;
400 -> 408 ;
409 [label=<std_atomic_radius &le; 74.123<br/>squared_error = 3.733<br/>samples = 75<br/>value = 4.379>, fillcolor="#fefbf9"] ;
408 -> 409 ;
410 [label=<wtd_std_atomic_mass &le; 75.946<br/>squared_error = 1.196<br/>samples = 53<br/>value = 3.592>, fillcolor="#fefcfa"] ;
409 -> 410 ;
411 [label=<wtd_entropy_Density &le; 1.195<br/>squared_error = 0.661<br/>samples = 32<br/>value = 2.987>, fillcolor="#fefcfb"] ;
410 -> 411 ;
412 [label=<squared_error = 0.603<br/>samples = 18<br/>value = 2.663>, fillcolor="#fefdfb"] ;
411 -> 412 ;
413 [label=<squared_error = 0.428<br/>samples = 14<br/>value = 3.402>, fillcolor="#fefcfa"] ;
411 -> 413 ;
414 [label=<wtd_std_Density &le; 3644.637<br/>squared_error = 0.604<br/>samples = 21<br/>value = 4.514>, fillcolor="#fefbf8"] ;
410 -> 414 ;
415 [label=<squared_error = 0.352<br/>samples = 11<br/>value = 3.925>, fillcolor="#fefbf9"] ;
414 -> 415 ;
416 [label=<squared_error = 0.079<br/>samples = 10<br/>value = 5.162>, fillcolor="#fefaf7"] ;
414 -> 416 ;
417 [label=<gmean_fie &le; 682.885<br/>squared_error = 4.751<br/>samples = 22<br/>value = 6.276>, fillcolor="#fef9f6"] ;
409 -> 417 ;
418 [label=<squared_error = 6.877<br/>samples = 10<br/>value = 7.538>, fillcolor="#fef8f4"] ;
417 -> 418 ;
419 [label=<squared_error = 0.549<br/>samples = 12<br/>value = 5.225>, fillcolor="#fefaf7"] ;
417 -> 419 ;
420 [label=<wtd_std_ElectronAffinity &le; 56.762<br/>squared_error = 103.693<br/>samples = 296<br/>value = 13.632>, fillcolor="#fcf2eb"] ;
408 -> 420 ;
421 [label=<wtd_gmean_atomic_radius &le; 120.258<br/>squared_error = 39.563<br/>samples = 213<br/>value = 10.434>, fillcolor="#fdf5f0"] ;
420 -> 421 ;
422 [label=<std_ThermalConductivity &le; 30.942<br/>squared_error = 37.957<br/>samples = 157<br/>value = 12.313>, fillcolor="#fdf3ed"] ;
421 -> 422 ;
423 [label=<wtd_mean_Density &le; 4845.052<br/>squared_error = 25.174<br/>samples = 27<br/>value = 18.249>, fillcolor="#fbeee4"] ;
422 -> 423 ;
424 [label=<squared_error = 14.191<br/>samples = 15<br/>value = 21.225>, fillcolor="#fbebe0"] ;
423 -> 424 ;
425 [label=<squared_error = 13.998<br/>samples = 12<br/>value = 14.529>, fillcolor="#fcf1ea"] ;
423 -> 425 ;
426 [label=<wtd_std_atomic_radius &le; 51.248<br/>squared_error = 31.775<br/>samples = 130<br/>value = 11.08>, fillcolor="#fdf5ef"] ;
422 -> 426 ;
427 [label=<wtd_std_FusionHeat &le; 32.32<br/>squared_error = 18.31<br/>samples = 68<br/>value = 13.351>, fillcolor="#fcf2eb"] ;
426 -> 427 ;
428 [label=<wtd_std_fie &le; 146.151<br/>squared_error = 18.595<br/>samples = 42<br/>value = 15.06>, fillcolor="#fcf1e9"] ;
427 -> 428 ;
429 [label=<wtd_range_FusionHeat &le; 17.315<br/>squared_error = 7.263<br/>samples = 32<br/>value = 14.105>, fillcolor="#fcf2ea"] ;
428 -> 429 ;
430 [label=<squared_error = 1.819<br/>samples = 22<br/>value = 14.925>, fillcolor="#fcf1e9"] ;
429 -> 430 ;
431 [label=<squared_error = 14.517<br/>samples = 10<br/>value = 12.303>, fillcolor="#fdf3ed"] ;
429 -> 431 ;
432 [label=<squared_error = 42.612<br/>samples = 10<br/>value = 18.114>, fillcolor="#fbeee4"] ;
428 -> 432 ;
433 [label=<wtd_range_fie &le; 252.193<br/>squared_error = 5.514<br/>samples = 26<br/>value = 10.591>, fillcolor="#fdf5ef"] ;
427 -> 433 ;
434 [label=<squared_error = 2.437<br/>samples = 13<br/>value = 9.434>, fillcolor="#fdf6f1"] ;
433 -> 434 ;
435 [label=<squared_error = 5.915<br/>samples = 13<br/>value = 11.747>, fillcolor="#fdf4ee"] ;
433 -> 435 ;
436 [label=<wtd_entropy_ElectronAffinity &le; 0.705<br/>squared_error = 34.688<br/>samples = 62<br/>value = 8.59>, fillcolor="#fdf7f2"] ;
426 -> 436 ;
437 [label=<squared_error = 48.464<br/>samples = 10<br/>value = 16.72>, fillcolor="#fcefe6"] ;
436 -> 437 ;
438 [label=<wtd_range_Density &le; 1789.868<br/>squared_error = 16.884<br/>samples = 52<br/>value = 7.027>, fillcolor="#fef8f5"] ;
436 -> 438 ;
439 [label=<squared_error = 13.064<br/>samples = 12<br/>value = 11.588>, fillcolor="#fdf4ee"] ;
438 -> 439 ;
440 [label=<wtd_std_ElectronAffinity &le; 45.672<br/>squared_error = 9.916<br/>samples = 40<br/>value = 5.658>, fillcolor="#fefaf7"] ;
438 -> 440 ;
441 [label=<squared_error = 2.546<br/>samples = 12<br/>value = 3.273>, fillcolor="#fefcfa"] ;
440 -> 441 ;
442 [label=<wtd_mean_Density &le; 5034.206<br/>squared_error = 9.591<br/>samples = 28<br/>value = 6.681>, fillcolor="#fef9f5"] ;
440 -> 442 ;
443 [label=<squared_error = 10.631<br/>samples = 13<br/>value = 8.406>, fillcolor="#fdf7f3"] ;
442 -> 443 ;
444 [label=<squared_error = 3.873<br/>samples = 15<br/>value = 5.185>, fillcolor="#fefaf7"] ;
442 -> 444 ;
445 [label=<wtd_range_Density &le; 5228.465<br/>squared_error = 6.416<br/>samples = 56<br/>value = 5.166>, fillcolor="#fefaf7"] ;
421 -> 445 ;
446 [label=<wtd_gmean_atomic_mass &le; 36.202<br/>squared_error = 2.585<br/>samples = 46<br/>value = 4.592>, fillcolor="#fefbf8"] ;
445 -> 446 ;
447 [label=<wtd_range_Density &le; 1794.259<br/>squared_error = 1.613<br/>samples = 20<br/>value = 5.822>, fillcolor="#fefaf6"] ;
446 -> 447 ;
448 [label=<squared_error = 0.992<br/>samples = 10<br/>value = 5.108>, fillcolor="#fefaf7"] ;
447 -> 448 ;
449 [label=<squared_error = 1.216<br/>samples = 10<br/>value = 6.535>, fillcolor="#fef9f5"] ;
447 -> 449 ;
450 [label=<wtd_gmean_Density &le; 2590.095<br/>squared_error = 1.274<br/>samples = 26<br/>value = 3.645>, fillcolor="#fefcfa"] ;
446 -> 450 ;
451 [label=<squared_error = 0.387<br/>samples = 10<br/>value = 4.709>, fillcolor="#fefbf8"] ;
450 -> 451 ;
452 [label=<squared_error = 0.68<br/>samples = 16<br/>value = 2.981>, fillcolor="#fefcfb"] ;
450 -> 452 ;
453 [label=<squared_error = 15.527<br/>samples = 10<br/>value = 7.81>, fillcolor="#fdf8f4"] ;
445 -> 453 ;
454 [label=<wtd_mean_FusionHeat &le; 12.669<br/>squared_error = 174.696<br/>samples = 83<br/>value = 21.838>, fillcolor="#fbeadf"] ;
420 -> 454 ;
455 [label=<std_fie &le; 384.83<br/>squared_error = 164.255<br/>samples = 60<br/>value = 26.181>, fillcolor="#fae6d8"] ;
454 -> 455 ;
456 [label=<mean_ThermalConductivity &le; 38.705<br/>squared_error = 95.348<br/>samples = 50<br/>value = 22.952>, fillcolor="#fbe9dd"] ;
455 -> 456 ;
457 [label=<squared_error = 64.376<br/>samples = 16<br/>value = 14.366>, fillcolor="#fcf2ea"] ;
456 -> 457 ;
458 [label=<wtd_std_ElectronAffinity &le; 85.586<br/>squared_error = 58.902<br/>samples = 34<br/>value = 26.993>, fillcolor="#fae6d7"] ;
456 -> 458 ;
459 [label=<std_ThermalConductivity &le; 42.181<br/>squared_error = 38.187<br/>samples = 24<br/>value = 29.577>, fillcolor="#f9e3d3"] ;
458 -> 459 ;
460 [label=<squared_error = 43.091<br/>samples = 12<br/>value = 26.646>, fillcolor="#fae6d8"] ;
459 -> 460 ;
461 [label=<squared_error = 16.099<br/>samples = 12<br/>value = 32.508>, fillcolor="#f9e0cf"] ;
459 -> 461 ;
462 [label=<squared_error = 54.115<br/>samples = 10<br/>value = 20.79>, fillcolor="#fbebe0"] ;
458 -> 462 ;
463 [label=<squared_error = 196.027<br/>samples = 10<br/>value = 42.325>, fillcolor="#f7d7c1"] ;
455 -> 463 ;
464 [label=<wtd_range_fie &le; 343.553<br/>squared_error = 24.349<br/>samples = 23<br/>value = 10.507>, fillcolor="#fdf5f0"] ;
454 -> 464 ;
465 [label=<squared_error = 4.676<br/>samples = 11<br/>value = 7.659>, fillcolor="#fef8f4"] ;
464 -> 465 ;
466 [label=<squared_error = 28.129<br/>samples = 12<br/>value = 13.118>, fillcolor="#fcf3ec"] ;
464 -> 466 ;
467 [label=<wtd_mean_atomic_mass &le; 99.912<br/>squared_error = 37.145<br/>samples = 5333<br/>value = 6.034>, fillcolor="#fef9f6"] ;
1 -> 467 ;
468 [label=<entropy_atomic_mass &le; 1.254<br/>squared_error = 49.567<br/>samples = 3033<br/>value = 7.915>, fillcolor="#fdf8f3"] ;
467 -> 468 ;
469 [label=<mean_fie &le; 650.196<br/>squared_error = 40.322<br/>samples = 2563<br/>value = 6.857>, fillcolor="#fef9f5"] ;
468 -> 469 ;
470 [label=<wtd_range_Valence &le; 2.43<br/>squared_error = 28.818<br/>samples = 228<br/>value = 11.24>, fillcolor="#fdf4ee"] ;
469 -> 470 ;
471 [label=<mean_FusionHeat &le; 16.146<br/>squared_error = 13.896<br/>samples = 68<br/>value = 5.765>, fillcolor="#fefaf7"] ;
470 -> 471 ;
472 [label=<wtd_mean_atomic_mass &le; 70.527<br/>squared_error = 10.48<br/>samples = 33<br/>value = 3.93>, fillcolor="#fefbf9"] ;
471 -> 472 ;
473 [label=<squared_error = 13.368<br/>samples = 13<br/>value = 6.287>, fillcolor="#fef9f6"] ;
472 -> 473 ;
474 [label=<wtd_range_atomic_mass &le; 30.864<br/>squared_error = 2.643<br/>samples = 20<br/>value = 2.398>, fillcolor="#fffdfb"] ;
472 -> 474 ;
475 [label=<squared_error = 0.321<br/>samples = 10<br/>value = 1.375>, fillcolor="#fffefd"] ;
474 -> 475 ;
476 [label=<squared_error = 2.874<br/>samples = 10<br/>value = 3.42>, fillcolor="#fefcfa"] ;
474 -> 476 ;
477 [label=<wtd_gmean_atomic_mass &le; 71.837<br/>squared_error = 10.948<br/>samples = 35<br/>value = 7.495>, fillcolor="#fef8f4"] ;
471 -> 477 ;
478 [label=<squared_error = 2.99<br/>samples = 16<br/>value = 5.399>, fillcolor="#fefaf7"] ;
477 -> 478 ;
479 [label=<squared_error = 10.838<br/>samples = 19<br/>value = 9.259>, fillcolor="#fdf6f1"] ;
477 -> 479 ;
480 [label=<wtd_std_atomic_radius &le; 22.09<br/>squared_error = 17.006<br/>samples = 160<br/>value = 13.567>, fillcolor="#fcf2eb"] ;
470 -> 480 ;
481 [label=<wtd_range_ThermalConductivity &le; 17.4<br/>squared_error = 12.145<br/>samples = 72<br/>value = 10.921>, fillcolor="#fdf5ef"] ;
480 -> 481 ;
482 [label=<wtd_range_FusionHeat &le; 15.589<br/>squared_error = 1.798<br/>samples = 30<br/>value = 14.073>, fillcolor="#fcf2ea"] ;
481 -> 482 ;
483 [label=<squared_error = 1.925<br/>samples = 10<br/>value = 12.974>, fillcolor="#fcf3ec"] ;
482 -> 483 ;
484 [label=<squared_error = 0.829<br/>samples = 20<br/>value = 14.623>, fillcolor="#fcf1e9"] ;
482 -> 484 ;
485 [label=<wtd_std_ThermalConductivity &le; 7.342<br/>squared_error = 7.366<br/>samples = 42<br/>value = 8.669>, fillcolor="#fdf7f2"] ;
481 -> 485 ;
486 [label=<wtd_mean_atomic_mass &le; 57.912<br/>squared_error = 2.088<br/>samples = 28<br/>value = 9.976>, fillcolor="#fdf6f0"] ;
485 -> 486 ;
487 [label=<squared_error = 3.338<br/>samples = 10<br/>value = 11.085>, fillcolor="#fdf5ef"] ;
486 -> 487 ;
488 [label=<squared_error = 0.331<br/>samples = 18<br/>value = 9.359>, fillcolor="#fdf6f1"] ;
486 -> 488 ;
489 [label=<squared_error = 7.678<br/>samples = 14<br/>value = 6.056>, fillcolor="#fef9f6"] ;
485 -> 489 ;
490 [label=<wtd_mean_FusionHeat &le; 23.0<br/>squared_error = 10.57<br/>samples = 88<br/>value = 15.731>, fillcolor="#fcf0e8"] ;
480 -> 490 ;
491 [label=<wtd_mean_FusionHeat &le; 21.984<br/>squared_error = 3.518<br/>samples = 77<br/>value = 16.556>, fillcolor="#fcefe7"] ;
490 -> 491 ;
492 [label=<entropy_fie &le; 1.095<br/>squared_error = 2.41<br/>samples = 35<br/>value = 17.727>, fillcolor="#fceee5"] ;
491 -> 492 ;
493 [label=<std_Valence &le; 0.908<br/>squared_error = 2.443<br/>samples = 23<br/>value = 18.185>, fillcolor="#fbeee4"] ;
492 -> 493 ;
494 [label=<squared_error = 0.032<br/>samples = 11<br/>value = 18.005>, fillcolor="#fceee4"] ;
493 -> 494 ;
495 [label=<squared_error = 4.598<br/>samples = 12<br/>value = 18.35>, fillcolor="#fbeee4"] ;
493 -> 495 ;
496 [label=<squared_error = 1.176<br/>samples = 12<br/>value = 16.85>, fillcolor="#fcefe6"] ;
492 -> 496 ;
497 [label=<wtd_std_fie &le; 37.386<br/>squared_error = 2.345<br/>samples = 42<br/>value = 15.58>, fillcolor="#fcf0e8"] ;
491 -> 497 ;
498 [label=<entropy_atomic_mass &le; 0.984<br/>squared_error = 1.817<br/>samples = 32<br/>value = 15.127>, fillcolor="#fcf1e9"] ;
497 -> 498 ;
499 [label=<wtd_gmean_fie &le; 646.12<br/>squared_error = 1.286<br/>samples = 22<br/>value = 15.452>, fillcolor="#fcf0e8"] ;
498 -> 499 ;
500 [label=<squared_error = 1.206<br/>samples = 10<br/>value = 15.8>, fillcolor="#fcf0e8"] ;
499 -> 500 ;
501 [label=<squared_error = 1.169<br/>samples = 12<br/>value = 15.163>, fillcolor="#fcf1e9"] ;
499 -> 501 ;
502 [label=<squared_error = 2.237<br/>samples = 10<br/>value = 14.41>, fillcolor="#fcf1ea"] ;
498 -> 502 ;
503 [label=<squared_error = 1.274<br/>samples = 10<br/>value = 17.03>, fillcolor="#fcefe6"] ;
497 -> 503 ;
504 [label=<squared_error = 21.845<br/>samples = 11<br/>value = 9.958>, fillcolor="#fdf6f0"] ;
490 -> 504 ;
505 [label=<range_ElectronAffinity &le; 178.95<br/>squared_error = 39.386<br/>samples = 2335<br/>value = 6.429>, fillcolor="#fef9f6"] ;
469 -> 505 ;
506 [label=<wtd_mean_atomic_radius &le; 86.228<br/>squared_error = 31.107<br/>samples = 2100<br/>value = 5.957>, fillcolor="#fef9f6"] ;
505 -> 506 ;
507 [label=<squared_error = 1689.528<br/>samples = 10<br/>value = 25.865>, fillcolor="#fae7d9"] ;
506 -> 507 ;
508 [label=<entropy_ThermalConductivity &le; 0.9<br/>squared_error = 21.266<br/>samples = 2090<br/>value = 5.861>, fillcolor="#fefaf6"] ;
506 -> 508 ;
509 [label=<wtd_mean_Valence &le; 4.13<br/>squared_error = 17.232<br/>samples = 1402<br/>value = 5.033>, fillcolor="#fefaf8"] ;
508 -> 509 ;
510 [label=<wtd_gmean_atomic_mass &le; 10.457<br/>squared_error = 12.554<br/>samples = 461<br/>value = 3.375>, fillcolor="#fefcfa"] ;
509 -> 510 ;
511 [label=<squared_error = 130.703<br/>samples = 15<br/>value = 10.265>, fillcolor="#fdf5f0"] ;
510 -> 511 ;
512 [label=<wtd_gmean_atomic_radius &le; 134.507<br/>squared_error = 6.93<br/>samples = 446<br/>value = 3.143>, fillcolor="#fefcfa"] ;
510 -> 512 ;
513 [label=<wtd_mean_atomic_radius &le; 100.097<br/>squared_error = 10.738<br/>samples = 140<br/>value = 4.554>, fillcolor="#fefbf8"] ;
512 -> 513 ;
514 [label=<mean_FusionHeat &le; 12.494<br/>squared_error = 3.829<br/>samples = 45<br/>value = 2.521>, fillcolor="#fffdfb"] ;
513 -> 514 ;
515 [label=<squared_error = 3.848<br/>samples = 17<br/>value = 4.082>, fillcolor="#fefbf9"] ;
514 -> 515 ;
516 [label=<wtd_mean_atomic_radius &le; 91.127<br/>squared_error = 1.438<br/>samples = 28<br/>value = 1.572>, fillcolor="#fffefd"] ;
514 -> 516 ;
517 [label=<squared_error = 1.989<br/>samples = 11<br/>value = 2.488>, fillcolor="#fffdfb"] ;
516 -> 517 ;
518 [label=<squared_error = 0.187<br/>samples = 17<br/>value = 0.98>, fillcolor="#fffefe"] ;
516 -> 518 ;
519 [label=<mean_atomic_radius &le; 153.5<br/>squared_error = 11.124<br/>samples = 95<br/>value = 5.517>, fillcolor="#fefaf7"] ;
513 -> 519 ;
520 [label=<wtd_mean_FusionHeat &le; 9.085<br/>squared_error = 7.658<br/>samples = 63<br/>value = 4.614>, fillcolor="#fefbf8"] ;
519 -> 520 ;
521 [label=<squared_error = 7.891<br/>samples = 10<br/>value = 7.006>, fillcolor="#fef8f5"] ;
520 -> 521 ;
522 [label=<wtd_gmean_Valence &le; 3.426<br/>squared_error = 6.331<br/>samples = 53<br/>value = 4.163>, fillcolor="#fefbf9"] ;
520 -> 522 ;
523 [label=<wtd_std_FusionHeat &le; 8.043<br/>squared_error = 3.913<br/>samples = 29<br/>value = 3.194>, fillcolor="#fefcfa"] ;
522 -> 523 ;
524 [label=<squared_error = 1.282<br/>samples = 13<br/>value = 1.949>, fillcolor="#fffdfc"] ;
523 -> 524 ;
525 [label=<squared_error = 3.767<br/>samples = 16<br/>value = 4.206>, fillcolor="#fefbf9"] ;
523 -> 525 ;
526 [label=<entropy_ElectronAffinity &le; 0.575<br/>squared_error = 6.75<br/>samples = 24<br/>value = 5.333>, fillcolor="#fefaf7"] ;
522 -> 526 ;
527 [label=<squared_error = 2.703<br/>samples = 10<br/>value = 3.71>, fillcolor="#fefcfa"] ;
526 -> 527 ;
528 [label=<squared_error = 6.416<br/>samples = 14<br/>value = 6.492>, fillcolor="#fef9f5"] ;
526 -> 528 ;
529 [label=<mean_atomic_mass &le; 96.278<br/>squared_error = 13.179<br/>samples = 32<br/>value = 7.296>, fillcolor="#fef8f4"] ;
519 -> 529 ;
530 [label=<wtd_mean_ElectronAffinity &le; 45.341<br/>squared_error = 6.755<br/>samples = 22<br/>value = 9.122>, fillcolor="#fdf6f2"] ;
529 -> 530 ;
531 [label=<squared_error = 1.922<br/>samples = 10<br/>value = 7.169>, fillcolor="#fef8f4"] ;
530 -> 531 ;
532 [label=<squared_error = 4.955<br/>samples = 12<br/>value = 10.749>, fillcolor="#fdf5ef"] ;
530 -> 532 ;
533 [label=<squared_error = 3.842<br/>samples = 10<br/>value = 3.279>, fillcolor="#fefcfa"] ;
529 -> 533 ;
534 [label=<wtd_range_Valence &le; 1.317<br/>squared_error = 3.861<br/>samples = 306<br/>value = 2.498>, fillcolor="#fffdfb"] ;
512 -> 534 ;
535 [label=<gmean_Density &le; 7802.557<br/>squared_error = 1.76<br/>samples = 99<br/>value = 1.051>, fillcolor="#fffefd"] ;
534 -> 535 ;
536 [label=<wtd_range_ElectronAffinity &le; 36.418<br/>squared_error = 0.981<br/>samples = 89<br/>value = 0.878>, fillcolor="#fffefe"] ;
535 -> 536 ;
537 [label=<wtd_entropy_fie &le; 0.631<br/>squared_error = 1.493<br/>samples = 35<br/>value = 1.552>, fillcolor="#fffefd"] ;
536 -> 537 ;
538 [label=<squared_error = 0.545<br/>samples = 16<br/>value = 0.794>, fillcolor="#fffefe"] ;
537 -> 538 ;
539 [label=<squared_error = 1.401<br/>samples = 19<br/>value = 2.19>, fillcolor="#fffdfc"] ;
537 -> 539 ;
540 [label=<std_atomic_radius &le; 24.801<br/>squared_error = 0.164<br/>samples = 54<br/>value = 0.441>, fillcolor="#fffffe"] ;
536 -> 540 ;
541 [label=<wtd_entropy_Valence &le; 0.679<br/>squared_error = 0.11<br/>samples = 26<br/>value = 0.187>, fillcolor="#ffffff"] ;
540 -> 541 ;
542 [label=<squared_error = 0.003<br/>samples = 16<br/>value = 0.111>, fillcolor="#ffffff"] ;
541 -> 542 ;
543 [label=<squared_error = 0.256<br/>samples = 10<br/>value = 0.309>, fillcolor="#ffffff"] ;
541 -> 543 ;
544 [label=<gmean_atomic_mass &le; 67.776<br/>squared_error = 0.099<br/>samples = 28<br/>value = 0.676>, fillcolor="#fffefe"] ;
540 -> 544 ;
545 [label=<squared_error = 0.125<br/>samples = 14<br/>value = 0.844>, fillcolor="#fffefe"] ;
544 -> 545 ;
546 [label=<squared_error = 0.016<br/>samples = 14<br/>value = 0.507>, fillcolor="#fffffe"] ;
544 -> 546 ;
547 [label=<squared_error = 6.044<br/>samples = 10<br/>value = 2.593>, fillcolor="#fffdfb"] ;
535 -> 547 ;
548 [label=<range_atomic_mass &le; 32.411<br/>squared_error = 3.386<br/>samples = 207<br/>value = 3.19>, fillcolor="#fefcfa"] ;
534 -> 548 ;
549 [label=<wtd_range_ElectronAffinity &le; 22.403<br/>squared_error = 3.129<br/>samples = 75<br/>value = 4.204>, fillcolor="#fefbf9"] ;
548 -> 549 ;
550 [label=<range_atomic_mass &le; 29.984<br/>squared_error = 1.6<br/>samples = 36<br/>value = 3.266>, fillcolor="#fefcfa"] ;
549 -> 550 ;
551 [label=<wtd_std_FusionHeat &le; 1.885<br/>squared_error = 0.719<br/>samples = 23<br/>value = 2.616>, fillcolor="#fefdfb"] ;
550 -> 551 ;
552 [label=<squared_error = 0.51<br/>samples = 13<br/>value = 3.028>, fillcolor="#fefcfb"] ;
551 -> 552 ;
553 [label=<squared_error = 0.482<br/>samples = 10<br/>value = 2.08>, fillcolor="#fffdfc"] ;
551 -> 553 ;
554 [label=<squared_error = 1.09<br/>samples = 13<br/>value = 4.416>, fillcolor="#fefbf9"] ;
550 -> 554 ;
555 [label=<wtd_mean_ElectronAffinity &le; 46.685<br/>squared_error = 2.977<br/>samples = 39<br/>value = 5.071>, fillcolor="#fefaf8"] ;
549 -> 555 ;
556 [label=<wtd_std_Density &le; 987.865<br/>squared_error = 2.872<br/>samples = 24<br/>value = 4.33>, fillcolor="#fefbf9"] ;
555 -> 556 ;
557 [label=<squared_error = 0.837<br/>samples = 12<br/>value = 3.701>, fillcolor="#fefcfa"] ;
556 -> 557 ;
558 [label=<squared_error = 4.115<br/>samples = 12<br/>value = 4.959>, fillcolor="#fefaf8"] ;
556 -> 558 ;
559 [label=<squared_error = 0.863<br/>samples = 15<br/>value = 6.255>, fillcolor="#fef9f6"] ;
555 -> 559 ;
560 [label=<gmean_FusionHeat &le; 22.978<br/>squared_error = 2.615<br/>samples = 132<br/>value = 2.614>, fillcolor="#fefdfb"] ;
548 -> 560 ;
561 [label=<wtd_mean_fie &le; 680.807<br/>squared_error = 1.87<br/>samples = 110<br/>value = 2.335>, fillcolor="#fffdfc"] ;
560 -> 561 ;
562 [label=<wtd_mean_atomic_radius &le; 175.735<br/>squared_error = 1.598<br/>samples = 55<br/>value = 2.967>, fillcolor="#fefcfb"] ;
561 -> 562 ;
563 [label=<squared_error = 1.538<br/>samples = 17<br/>value = 4.128>, fillcolor="#fefbf9"] ;
562 -> 563 ;
564 [label=<wtd_range_atomic_radius &le; 151.22<br/>squared_error = 0.752<br/>samples = 38<br/>value = 2.448>, fillcolor="#fffdfb"] ;
562 -> 564 ;
565 [label=<squared_error = 0.103<br/>samples = 18<br/>value = 3.187>, fillcolor="#fefcfa"] ;
564 -> 565 ;
566 [label=<wtd_gmean_Valence &le; 4.024<br/>squared_error = 0.403<br/>samples = 20<br/>value = 1.783>, fillcolor="#fffdfc"] ;
564 -> 566 ;
567 [label=<squared_error = 0.327<br/>samples = 10<br/>value = 1.479>, fillcolor="#fffefd"] ;
566 -> 567 ;
568 [label=<squared_error = 0.294<br/>samples = 10<br/>value = 2.086>, fillcolor="#fffdfc"] ;
566 -> 568 ;
569 [label=<entropy_atomic_mass &le; 0.976<br/>squared_error = 1.344<br/>samples = 55<br/>value = 1.704>, fillcolor="#fffdfd"] ;
561 -> 569 ;
570 [label=<std_Valence &le; 0.971<br/>squared_error = 1.081<br/>samples = 40<br/>value = 2.113>, fillcolor="#fffdfc"] ;
569 -> 570 ;
571 [label=<wtd_gmean_ElectronAffinity &le; 60.902<br/>squared_error = 0.572<br/>samples = 23<br/>value = 1.736>, fillcolor="#fffdfc"] ;
570 -> 571 ;
572 [label=<squared_error = 0.566<br/>samples = 11<br/>value = 1.246>, fillcolor="#fffefd"] ;
571 -> 572 ;
573 [label=<squared_error = 0.157<br/>samples = 12<br/>value = 2.184>, fillcolor="#fffdfc"] ;
571 -> 573 ;
574 [label=<squared_error = 1.315<br/>samples = 17<br/>value = 2.624>, fillcolor="#fefdfb"] ;
570 -> 574 ;
575 [label=<squared_error = 0.407<br/>samples = 15<br/>value = 0.612>, fillcolor="#fffefe"] ;
569 -> 575 ;
576 [label=<gmean_ThermalConductivity &le; 57.373<br/>squared_error = 4.015<br/>samples = 22<br/>value = 4.005>, fillcolor="#fefbf9"] ;
560 -> 576 ;
577 [label=<squared_error = 2.069<br/>samples = 12<br/>value = 2.838>, fillcolor="#fefcfb"] ;
576 -> 577 ;
578 [label=<squared_error = 2.755<br/>samples = 10<br/>value = 5.406>, fillcolor="#fefaf7"] ;
576 -> 578 ;
579 [label=<std_ThermalConductivity &le; 7.5<br/>squared_error = 17.518<br/>samples = 941<br/>value = 5.845>, fillcolor="#fefaf6"] ;
509 -> 579 ;
580 [label=<wtd_gmean_FusionHeat &le; 20.972<br/>squared_error = 28.114<br/>samples = 116<br/>value = 8.762>, fillcolor="#fdf7f2"] ;
579 -> 580 ;
581 [label=<squared_error = 7.242<br/>samples = 14<br/>value = 16.873>, fillcolor="#fcefe6"] ;
580 -> 581 ;
582 [label=<wtd_entropy_ElectronAffinity &le; 0.668<br/>squared_error = 20.711<br/>samples = 102<br/>value = 7.649>, fillcolor="#fef8f4"] ;
580 -> 582 ;
583 [label=<wtd_gmean_ElectronAffinity &le; 93.822<br/>squared_error = 19.105<br/>samples = 83<br/>value = 8.44>, fillcolor="#fdf7f3"] ;
582 -> 583 ;
584 [label=<mean_atomic_radius &le; 176.5<br/>squared_error = 9.22<br/>samples = 60<br/>value = 7.241>, fillcolor="#fef8f4"] ;
583 -> 584 ;
585 [label=<squared_error = 4.29<br/>samples = 16<br/>value = 3.626>, fillcolor="#fefcfa"] ;
584 -> 585 ;
586 [label=<mean_atomic_radius &le; 190.25<br/>squared_error = 4.534<br/>samples = 44<br/>value = 8.556>, fillcolor="#fdf7f2"] ;
584 -> 586 ;
587 [label=<squared_error = 6.166<br/>samples = 17<br/>value = 7.305>, fillcolor="#fef8f4"] ;
586 -> 587 ;
588 [label=<wtd_mean_atomic_mass &le; 93.743<br/>squared_error = 1.902<br/>samples = 27<br/>value = 9.343>, fillcolor="#fdf6f1"] ;
586 -> 588 ;
589 [label=<squared_error = 0.43<br/>samples = 17<br/>value = 8.844>, fillcolor="#fdf7f2"] ;
588 -> 589 ;
590 [label=<squared_error = 3.263<br/>samples = 10<br/>value = 10.191>, fillcolor="#fdf5f0"] ;
588 -> 590 ;
591 [label=<squared_error = 31.354<br/>samples = 23<br/>value = 11.568>, fillcolor="#fdf4ee"] ;
583 -> 591 ;
592 [label=<squared_error = 13.042<br/>samples = 19<br/>value = 4.192>, fillcolor="#fefbf9"] ;
582 -> 592 ;
593 [label=<wtd_std_ThermalConductivity &le; 58.961<br/>squared_error = 14.663<br/>samples = 825<br/>value = 5.435>, fillcolor="#fefaf7"] ;
579 -> 593 ;
594 [label=<gmean_atomic_radius &le; 185.773<br/>squared_error = 11.256<br/>samples = 554<br/>value = 4.593>, fillcolor="#fefbf8"] ;
593 -> 594 ;
595 [label=<wtd_std_fie &le; 130.474<br/>squared_error = 8.872<br/>samples = 440<br/>value = 3.945>, fillcolor="#fefbf9"] ;
594 -> 595 ;
596 [label=<wtd_gmean_fie &le; 650.113<br/>squared_error = 7.221<br/>samples = 336<br/>value = 3.38>, fillcolor="#fefcfa"] ;
595 -> 596 ;
597 [label=<squared_error = 5.763<br/>samples = 10<br/>value = 8.437>, fillcolor="#fdf7f3"] ;
596 -> 597 ;
598 [label=<range_ThermalConductivity &le; 24.5<br/>squared_error = 6.457<br/>samples = 326<br/>value = 3.225>, fillcolor="#fefcfa"] ;
596 -> 598 ;
599 [label=<wtd_mean_Valence &le; 5.675<br/>squared_error = 18.52<br/>samples = 39<br/>value = 5.242>, fillcolor="#fefaf7"] ;
598 -> 599 ;
600 [label=<wtd_gmean_atomic_mass &le; 93.737<br/>squared_error = 18.618<br/>samples = 28<br/>value = 4.083>, fillcolor="#fefbf9"] ;
599 -> 600 ;
601 [label=<squared_error = 28.358<br/>samples = 14<br/>value = 6.074>, fillcolor="#fef9f6"] ;
600 -> 601 ;
602 [label=<squared_error = 0.95<br/>samples = 14<br/>value = 2.091>, fillcolor="#fffdfc"] ;
600 -> 602 ;
603 [label=<squared_error = 6.131<br/>samples = 11<br/>value = 8.195>, fillcolor="#fdf7f3"] ;
599 -> 603 ;
604 [label=<wtd_mean_Valence &le; 5.849<br/>squared_error = 4.19<br/>samples = 287<br/>value = 2.951>, fillcolor="#fefcfb"] ;
598 -> 604 ;
605 [label=<entropy_FusionHeat &le; 1.086<br/>squared_error = 4.033<br/>samples = 259<br/>value = 3.173>, fillcolor="#fefcfa"] ;
604 -> 605 ;
606 [label=<wtd_range_Valence &le; 2.35<br/>squared_error = 3.471<br/>samples = 249<br/>value = 3.052>, fillcolor="#fefcfb"] ;
605 -> 606 ;
607 [label=<wtd_mean_atomic_radius &le; 172.997<br/>squared_error = 3.629<br/>samples = 126<br/>value = 2.535>, fillcolor="#fffdfb"] ;
606 -> 607 ;
608 [label=<wtd_gmean_FusionHeat &le; 32.771<br/>squared_error = 2.526<br/>samples = 96<br/>value = 2.14>, fillcolor="#fffdfc"] ;
607 -> 608 ;
609 [label=<range_Density &le; 6885.0<br/>squared_error = 1.478<br/>samples = 84<br/>value = 1.934>, fillcolor="#fffdfc"] ;
608 -> 609 ;
610 [label=<squared_error = 0.679<br/>samples = 10<br/>value = 0.666>, fillcolor="#fffefe"] ;
609 -> 610 ;
611 [label=<range_ThermalConductivity &le; 138.882<br/>squared_error = 1.34<br/>samples = 74<br/>value = 2.105>, fillcolor="#fffdfc"] ;
609 -> 611 ;
612 [label=<gmean_ElectronAffinity &le; 81.355<br/>squared_error = 1.207<br/>samples = 62<br/>value = 2.341>, fillcolor="#fffdfc"] ;
611 -> 612 ;
613 [label=<wtd_std_FusionHeat &le; 15.663<br/>squared_error = 0.68<br/>samples = 23<br/>value = 1.782>, fillcolor="#fffdfc"] ;
612 -> 613 ;
614 [label=<squared_error = 0.299<br/>samples = 12<br/>value = 1.527>, fillcolor="#fffefd"] ;
613 -> 614 ;
615 [label=<squared_error = 0.947<br/>samples = 11<br/>value = 2.061>, fillcolor="#fffdfc"] ;
613 -> 615 ;
616 [label=<wtd_entropy_fie &le; 0.911<br/>squared_error = 1.225<br/>samples = 39<br/>value = 2.671>, fillcolor="#fefdfb"] ;
612 -> 616 ;
617 [label=<squared_error = 0.514<br/>samples = 25<br/>value = 2.308>, fillcolor="#fffdfc"] ;
616 -> 617 ;
618 [label=<squared_error = 1.84<br/>samples = 14<br/>value = 3.319>, fillcolor="#fefcfa"] ;
616 -> 618 ;
619 [label=<squared_error = 0.251<br/>samples = 12<br/>value = 0.885>, fillcolor="#fffefe"] ;
611 -> 619 ;
620 [label=<squared_error = 7.473<br/>samples = 12<br/>value = 3.586>, fillcolor="#fefcfa"] ;
608 -> 620 ;
621 [label=<wtd_entropy_fie &le; 0.688<br/>squared_error = 5.06<br/>samples = 30<br/>value = 3.799>, fillcolor="#fefbf9"] ;
607 -> 621 ;
622 [label=<wtd_entropy_ElectronAffinity &le; 0.647<br/>squared_error = 1.383<br/>samples = 20<br/>value = 3.064>, fillcolor="#fefcfb"] ;
621 -> 622 ;
623 [label=<squared_error = 0.986<br/>samples = 10<br/>value = 3.486>, fillcolor="#fefcfa"] ;
622 -> 623 ;
624 [label=<squared_error = 1.424<br/>samples = 10<br/>value = 2.642>, fillcolor="#fefdfb"] ;
622 -> 624 ;
625 [label=<squared_error = 9.169<br/>samples = 10<br/>value = 5.27>, fillcolor="#fefaf7"] ;
621 -> 625 ;
626 [label=<entropy_atomic_radius &le; 1.069<br/>squared_error = 2.756<br/>samples = 123<br/>value = 3.581>, fillcolor="#fefcfa"] ;
606 -> 626 ;
627 [label=<wtd_gmean_ElectronAffinity &le; 52.438<br/>squared_error = 1.77<br/>samples = 108<br/>value = 3.322>, fillcolor="#fefcfa"] ;
626 -> 627 ;
628 [label=<wtd_entropy_ElectronAffinity &le; 0.344<br/>squared_error = 1.292<br/>samples = 29<br/>value = 4.2>, fillcolor="#fefbf9"] ;
627 -> 628 ;
629 [label=<squared_error = 1.66<br/>samples = 14<br/>value = 4.811>, fillcolor="#fefbf8"] ;
628 -> 629 ;
630 [label=<squared_error = 0.273<br/>samples = 15<br/>value = 3.629>, fillcolor="#fefcfa"] ;
628 -> 630 ;
631 [label=<std_atomic_radius &le; 46.948<br/>squared_error = 1.558<br/>samples = 79<br/>value = 3.0>, fillcolor="#fefcfb"] ;
627 -> 631 ;
632 [label=<range_atomic_radius &le; 20.5<br/>squared_error = 1.021<br/>samples = 67<br/>value = 2.773>, fillcolor="#fefcfb"] ;
631 -> 632 ;
633 [label=<wtd_range_Valence &le; 3.845<br/>squared_error = 0.749<br/>samples = 20<br/>value = 2.131>, fillcolor="#fffdfc"] ;
632 -> 633 ;
634 [label=<squared_error = 0.363<br/>samples = 10<br/>value = 1.603>, fillcolor="#fffefd"] ;
633 -> 634 ;
635 [label=<squared_error = 0.578<br/>samples = 10<br/>value = 2.659>, fillcolor="#fefdfb"] ;
633 -> 635 ;
636 [label=<wtd_entropy_ThermalConductivity &le; 0.422<br/>squared_error = 0.887<br/>samples = 47<br/>value = 3.046>, fillcolor="#fefcfb"] ;
632 -> 636 ;
637 [label=<wtd_range_ElectronAffinity &le; 48.526<br/>squared_error = 0.771<br/>samples = 25<br/>value = 2.652>, fillcolor="#fefdfb"] ;
636 -> 637 ;
638 [label=<squared_error = 0.659<br/>samples = 11<br/>value = 2.141>, fillcolor="#fffdfc"] ;
637 -> 638 ;
639 [label=<squared_error = 0.492<br/>samples = 14<br/>value = 3.055>, fillcolor="#fefcfb"] ;
637 -> 639 ;
640 [label=<mean_atomic_mass &le; 92.474<br/>squared_error = 0.642<br/>samples = 22<br/>value = 3.494>, fillcolor="#fefcfa"] ;
636 -> 640 ;
641 [label=<squared_error = 0.274<br/>samples = 11<br/>value = 3.945>, fillcolor="#fefbf9"] ;
640 -> 641 ;
642 [label=<squared_error = 0.602<br/>samples = 11<br/>value = 3.043>, fillcolor="#fefcfb"] ;
640 -> 642 ;
643 [label=<squared_error = 2.674<br/>samples = 12<br/>value = 4.263>, fillcolor="#fefbf9"] ;
631 -> 643 ;
644 [label=<squared_error = 5.9<br/>samples = 15<br/>value = 5.445>, fillcolor="#fefaf7"] ;
626 -> 644 ;
645 [label=<squared_error = 8.469<br/>samples = 10<br/>value = 6.203>, fillcolor="#fef9f6"] ;
605 -> 645 ;
646 [label=<mean_ThermalConductivity &le; 108.0<br/>squared_error = 0.964<br/>samples = 28<br/>value = 0.896>, fillcolor="#fffefe"] ;
604 -> 646 ;
647 [label=<squared_error = 1.396<br/>samples = 12<br/>value = 1.535>, fillcolor="#fffefd"] ;
646 -> 647 ;
648 [label=<squared_error = 0.103<br/>samples = 16<br/>value = 0.416>, fillcolor="#fffffe"] ;
646 -> 648 ;
649 [label=<mean_FusionHeat &le; 15.045<br/>squared_error = 9.856<br/>samples = 104<br/>value = 5.768>, fillcolor="#fefaf7"] ;
595 -> 649 ;
650 [label=<wtd_range_atomic_radius &le; 29.564<br/>squared_error = 3.236<br/>samples = 30<br/>value = 3.454>, fillcolor="#fefcfa"] ;
649 -> 650 ;
651 [label=<squared_error = 0.866<br/>samples = 12<br/>value = 2.005>, fillcolor="#fffdfc"] ;
650 -> 651 ;
652 [label=<squared_error = 2.482<br/>samples = 18<br/>value = 4.421>, fillcolor="#fefbf9"] ;
650 -> 652 ;
653 [label=<wtd_mean_ElectronAffinity &le; 94.81<br/>squared_error = 9.491<br/>samples = 74<br/>value = 6.705>, fillcolor="#fef9f5"] ;
649 -> 653 ;
654 [label=<wtd_mean_Density &le; 6968.425<br/>squared_error = 11.174<br/>samples = 32<br/>value = 8.151>, fillcolor="#fdf7f3"] ;
653 -> 654 ;
655 [label=<squared_error = 13.608<br/>samples = 16<br/>value = 7.035>, fillcolor="#fef8f5"] ;
654 -> 655 ;
656 [label=<squared_error = 6.25<br/>samples = 16<br/>value = 9.267>, fillcolor="#fdf6f1"] ;
654 -> 656 ;
657 [label=<wtd_mean_Density &le; 6098.111<br/>squared_error = 5.403<br/>samples = 42<br/>value = 5.604>, fillcolor="#fefaf7"] ;
653 -> 657 ;
658 [label=<squared_error = 1.559<br/>samples = 23<br/>value = 6.862>, fillcolor="#fef9f5"] ;
657 -> 658 ;
659 [label=<squared_error = 5.817<br/>samples = 19<br/>value = 4.081>, fillcolor="#fefbf9"] ;
657 -> 659 ;
660 [label=<range_fie &le; 19.3<br/>squared_error = 12.564<br/>samples = 114<br/>value = 7.097>, fillcolor="#fef8f5"] ;
594 -> 660 ;
661 [label=<wtd_gmean_atomic_mass &le; 92.424<br/>squared_error = 3.307<br/>samples = 42<br/>value = 10.164>, fillcolor="#fdf5f0"] ;
660 -> 661 ;
662 [label=<wtd_mean_ThermalConductivity &le; 37.04<br/>squared_error = 1.297<br/>samples = 29<br/>value = 9.293>, fillcolor="#fdf6f1"] ;
661 -> 662 ;
663 [label=<squared_error = 0.929<br/>samples = 14<br/>value = 8.403>, fillcolor="#fdf7f3"] ;
662 -> 663 ;
664 [label=<squared_error = 0.211<br/>samples = 15<br/>value = 10.123>, fillcolor="#fdf6f0"] ;
662 -> 664 ;
665 [label=<squared_error = 2.321<br/>samples = 13<br/>value = 12.108>, fillcolor="#fdf4ed"] ;
661 -> 665 ;
666 [label=<wtd_range_atomic_radius &le; 81.8<br/>squared_error = 9.275<br/>samples = 72<br/>value = 5.308>, fillcolor="#fefaf7"] ;
660 -> 666 ;
667 [label=<squared_error = 5.323<br/>samples = 19<br/>value = 2.805>, fillcolor="#fefcfb"] ;
666 -> 667 ;
668 [label=<wtd_gmean_FusionHeat &le; 21.15<br/>squared_error = 7.642<br/>samples = 53<br/>value = 6.205>, fillcolor="#fef9f6"] ;
666 -> 668 ;
669 [label=<squared_error = 3.758<br/>samples = 13<br/>value = 8.492>, fillcolor="#fdf7f2"] ;
668 -> 669 ;
670 [label=<wtd_range_Density &le; 5550.819<br/>squared_error = 6.651<br/>samples = 40<br/>value = 5.461>, fillcolor="#fefaf7"] ;
668 -> 670 ;
671 [label=<wtd_mean_atomic_radius &le; 197.915<br/>squared_error = 2.322<br/>samples = 29<br/>value = 4.532>, fillcolor="#fefbf8"] ;
670 -> 671 ;
672 [label=<squared_error = 4.72<br/>samples = 11<br/>value = 5.219>, fillcolor="#fefaf7"] ;
671 -> 672 ;
673 [label=<squared_error = 0.392<br/>samples = 18<br/>value = 4.112>, fillcolor="#fefbf9"] ;
671 -> 673 ;
674 [label=<squared_error = 9.78<br/>samples = 11<br/>value = 7.912>, fillcolor="#fdf8f3"] ;
670 -> 674 ;
675 [label=<wtd_std_FusionHeat &le; 16.468<br/>squared_error = 17.217<br/>samples = 271<br/>value = 7.156>, fillcolor="#fef8f4"] ;
593 -> 675 ;
676 [label=<wtd_entropy_ThermalConductivity &le; 0.515<br/>squared_error = 13.714<br/>samples = 221<br/>value = 6.321>, fillcolor="#fef9f6"] ;
675 -> 676 ;
677 [label=<wtd_std_Valence &le; 0.785<br/>squared_error = 7.939<br/>samples = 96<br/>value = 4.51>, fillcolor="#fefbf8"] ;
676 -> 677 ;
678 [label=<wtd_mean_fie &le; 816.613<br/>squared_error = 7.606<br/>samples = 58<br/>value = 5.702>, fillcolor="#fefaf7"] ;
677 -> 678 ;
679 [label=<squared_error = 5.66<br/>samples = 10<br/>value = 8.983>, fillcolor="#fdf7f2"] ;
678 -> 679 ;
680 [label=<wtd_range_atomic_mass &le; 18.112<br/>squared_error = 5.301<br/>samples = 48<br/>value = 5.018>, fillcolor="#fefaf8"] ;
678 -> 680 ;
681 [label=<squared_error = 5.826<br/>samples = 13<br/>value = 6.757>, fillcolor="#fef9f5"] ;
680 -> 681 ;
682 [label=<gmean_ElectronAffinity &le; 96.441<br/>squared_error = 3.566<br/>samples = 35<br/>value = 4.373>, fillcolor="#fefbf9"] ;
680 -> 682 ;
683 [label=<squared_error = 1.586<br/>samples = 11<br/>value = 2.662>, fillcolor="#fefdfb"] ;
682 -> 683 ;
684 [label=<wtd_range_ThermalConductivity &le; 55.555<br/>squared_error = 2.517<br/>samples = 24<br/>value = 5.157>, fillcolor="#fefaf7"] ;
682 -> 684 ;
685 [label=<squared_error = 2.008<br/>samples = 11<br/>value = 4.116>, fillcolor="#fefbf9"] ;
684 -> 685 ;
686 [label=<squared_error = 1.258<br/>samples = 13<br/>value = 6.037>, fillcolor="#fef9f6"] ;
684 -> 686 ;
687 [label=<std_FusionHeat &le; 14.599<br/>squared_error = 2.968<br/>samples = 38<br/>value = 2.691>, fillcolor="#fefcfb"] ;
677 -> 687 ;
688 [label=<wtd_entropy_atomic_mass &le; 0.971<br/>squared_error = 0.257<br/>samples = 25<br/>value = 2.072>, fillcolor="#fffdfc"] ;
687 -> 688 ;
689 [label=<squared_error = 0.313<br/>samples = 10<br/>value = 2.435>, fillcolor="#fffdfb"] ;
688 -> 689 ;
690 [label=<squared_error = 0.073<br/>samples = 15<br/>value = 1.831>, fillcolor="#fffdfc"] ;
688 -> 690 ;
691 [label=<squared_error = 6.034<br/>samples = 13<br/>value = 3.879>, fillcolor="#fefbf9"] ;
687 -> 691 ;
692 [label=<wtd_mean_atomic_radius &le; 172.684<br/>squared_error = 13.693<br/>samples = 125<br/>value = 7.713>, fillcolor="#fef8f4"] ;
676 -> 692 ;
693 [label=<wtd_std_FusionHeat &le; 13.748<br/>squared_error = 10.225<br/>samples = 111<br/>value = 7.025>, fillcolor="#fef8f5"] ;
692 -> 693 ;
694 [label=<gmean_ElectronAffinity &le; 138.437<br/>squared_error = 4.468<br/>samples = 29<br/>value = 3.802>, fillcolor="#fefbf9"] ;
693 -> 694 ;
695 [label=<squared_error = 2.073<br/>samples = 19<br/>value = 2.744>, fillcolor="#fefcfb"] ;
694 -> 695 ;
696 [label=<squared_error = 2.851<br/>samples = 10<br/>value = 5.812>, fillcolor="#fefaf6"] ;
694 -> 696 ;
697 [label=<gmean_atomic_mass &le; 69.34<br/>squared_error = 7.288<br/>samples = 82<br/>value = 8.165>, fillcolor="#fdf7f3"] ;
693 -> 697 ;
698 [label=<gmean_atomic_radius &le; 149.298<br/>squared_error = 5.617<br/>samples = 56<br/>value = 9.17>, fillcolor="#fdf6f1"] ;
697 -> 698 ;
699 [label=<wtd_gmean_Valence &le; 5.141<br/>squared_error = 4.072<br/>samples = 30<br/>value = 10.233>, fillcolor="#fdf5f0"] ;
698 -> 699 ;
700 [label=<squared_error = 4.976<br/>samples = 16<br/>value = 9.487>, fillcolor="#fdf6f1"] ;
699 -> 700 ;
701 [label=<squared_error = 1.678<br/>samples = 14<br/>value = 11.085>, fillcolor="#fdf5ef"] ;
699 -> 701 ;
702 [label=<wtd_range_ElectronAffinity &le; 47.734<br/>squared_error = 4.591<br/>samples = 26<br/>value = 7.943>, fillcolor="#fdf8f3"] ;
698 -> 702 ;
703 [label=<squared_error = 7.385<br/>samples = 13<br/>value = 7.119>, fillcolor="#fef8f5"] ;
702 -> 703 ;
704 [label=<squared_error = 0.439<br/>samples = 13<br/>value = 8.768>, fillcolor="#fdf7f2"] ;
702 -> 704 ;
705 [label=<wtd_gmean_Density &le; 5828.874<br/>squared_error = 4.03<br/>samples = 26<br/>value = 6.002>, fillcolor="#fef9f6"] ;
697 -> 705 ;
706 [label=<squared_error = 2.02<br/>samples = 10<br/>value = 3.977>, fillcolor="#fefbf9"] ;
705 -> 706 ;
707 [label=<squared_error = 1.123<br/>samples = 16<br/>value = 7.267>, fillcolor="#fef8f4"] ;
705 -> 707 ;
708 [label=<squared_error = 7.737<br/>samples = 14<br/>value = 13.163>, fillcolor="#fcf3ec"] ;
692 -> 708 ;
709 [label=<entropy_fie &le; 1.079<br/>squared_error = 15.998<br/>samples = 50<br/>value = 10.847>, fillcolor="#fdf5ef"] ;
675 -> 709 ;
710 [label=<squared_error = 5.061<br/>samples = 12<br/>value = 4.679>, fillcolor="#fefbf8"] ;
709 -> 710 ;
711 [label=<wtd_std_ThermalConductivity &le; 66.636<br/>squared_error = 3.644<br/>samples = 38<br/>value = 12.795>, fillcolor="#fdf3ec"] ;
709 -> 711 ;
712 [label=<squared_error = 6.969<br/>samples = 11<br/>value = 11.568>, fillcolor="#fdf4ee"] ;
711 -> 712 ;
713 [label=<wtd_entropy_fie &le; 0.825<br/>squared_error = 1.426<br/>samples = 27<br/>value = 13.295>, fillcolor="#fcf3eb"] ;
711 -> 713 ;
714 [label=<squared_error = 1.35<br/>samples = 13<br/>value = 13.715>, fillcolor="#fcf2eb"] ;
713 -> 714 ;
715 [label=<squared_error = 1.18<br/>samples = 14<br/>value = 12.904>, fillcolor="#fdf3ec"] ;
713 -> 715 ;
716 [label=<wtd_entropy_FusionHeat &le; 0.528<br/>squared_error = 25.241<br/>samples = 688<br/>value = 7.549>, fillcolor="#fef8f4"] ;
508 -> 716 ;
717 [label=<std_atomic_radius &le; 44.476<br/>squared_error = 31.907<br/>samples = 82<br/>value = 12.518>, fillcolor="#fdf3ed"] ;
716 -> 717 ;
718 [label=<wtd_std_atomic_radius &le; 16.173<br/>squared_error = 25.959<br/>samples = 71<br/>value = 13.713>, fillcolor="#fcf2eb"] ;
717 -> 718 ;
719 [label=<squared_error = 6.596<br/>samples = 14<br/>value = 8.254>, fillcolor="#fdf7f3"] ;
718 -> 719 ;
720 [label=<wtd_range_Valence &le; 3.71<br/>squared_error = 21.597<br/>samples = 57<br/>value = 15.054>, fillcolor="#fcf1e9"] ;
718 -> 720 ;
721 [label=<entropy_Density &le; 1.093<br/>squared_error = 15.79<br/>samples = 41<br/>value = 16.709>, fillcolor="#fcefe6"] ;
720 -> 721 ;
722 [label=<gmean_fie &le; 706.397<br/>squared_error = 12.62<br/>samples = 31<br/>value = 17.874>, fillcolor="#fceee5"] ;
721 -> 722 ;
723 [label=<squared_error = 0.634<br/>samples = 19<br/>value = 16.689>, fillcolor="#fcefe6"] ;
722 -> 723 ;
724 [label=<squared_error = 25.86<br/>samples = 12<br/>value = 19.749>, fillcolor="#fbece2"] ;
722 -> 724 ;
725 [label=<squared_error = 8.368<br/>samples = 10<br/>value = 13.098>, fillcolor="#fcf3ec"] ;
721 -> 725 ;
726 [label=<squared_error = 11.464<br/>samples = 16<br/>value = 10.812>, fillcolor="#fdf5ef"] ;
720 -> 726 ;
727 [label=<squared_error = 1.645<br/>samples = 11<br/>value = 4.808>, fillcolor="#fefbf8"] ;
717 -> 727 ;
728 [label=<wtd_gmean_atomic_radius &le; 116.513<br/>squared_error = 20.545<br/>samples = 606<br/>value = 6.876>, fillcolor="#fef9f5"] ;
716 -> 728 ;
729 [label=<wtd_mean_fie &le; 780.158<br/>squared_error = 12.482<br/>samples = 114<br/>value = 10.928>, fillcolor="#fdf5ef"] ;
728 -> 729 ;
730 [label=<squared_error = 2.391<br/>samples = 22<br/>value = 15.1>, fillcolor="#fcf1e9"] ;
729 -> 730 ;
731 [label=<wtd_std_fie &le; 185.478<br/>squared_error = 9.739<br/>samples = 92<br/>value = 9.931>, fillcolor="#fdf6f0"] ;
729 -> 731 ;
732 [label=<range_atomic_radius &le; 129.5<br/>squared_error = 9.667<br/>samples = 40<br/>value = 8.186>, fillcolor="#fdf7f3"] ;
731 -> 732 ;
733 [label=<squared_error = 9.155<br/>samples = 11<br/>value = 5.221>, fillcolor="#fefaf7"] ;
732 -> 733 ;
734 [label=<wtd_std_fie &le; 162.151<br/>squared_error = 5.262<br/>samples = 29<br/>value = 9.31>, fillcolor="#fdf6f1"] ;
732 -> 734 ;
735 [label=<squared_error = 1.29<br/>samples = 12<br/>value = 10.532>, fillcolor="#fdf5ef"] ;
734 -> 735 ;
736 [label=<squared_error = 6.27<br/>samples = 17<br/>value = 8.448>, fillcolor="#fdf7f3"] ;
734 -> 736 ;
737 [label=<wtd_mean_ElectronAffinity &le; 111.431<br/>squared_error = 5.65<br/>samples = 52<br/>value = 11.273>, fillcolor="#fdf4ee"] ;
731 -> 737 ;
738 [label=<wtd_entropy_fie &le; 0.841<br/>squared_error = 6.423<br/>samples = 21<br/>value = 9.389>, fillcolor="#fdf6f1"] ;
737 -> 738 ;
739 [label=<squared_error = 1.394<br/>samples = 11<br/>value = 10.625>, fillcolor="#fdf5ef"] ;
738 -> 739 ;
740 [label=<squared_error = 8.421<br/>samples = 10<br/>value = 8.028>, fillcolor="#fdf7f3"] ;
738 -> 740 ;
741 [label=<wtd_gmean_Density &le; 4711.442<br/>squared_error = 1.09<br/>samples = 31<br/>value = 12.55>, fillcolor="#fdf3ec"] ;
737 -> 741 ;
742 [label=<squared_error = 1.357<br/>samples = 12<br/>value = 11.979>, fillcolor="#fdf4ed"] ;
741 -> 742 ;
743 [label=<squared_error = 0.586<br/>samples = 19<br/>value = 12.911>, fillcolor="#fdf3ec"] ;
741 -> 743 ;
744 [label=<entropy_fie &le; 1.075<br/>squared_error = 17.728<br/>samples = 492<br/>value = 5.938>, fillcolor="#fef9f6"] ;
728 -> 744 ;
745 [label=<squared_error = 137.582<br/>samples = 12<br/>value = 16.013>, fillcolor="#fcf0e7"] ;
744 -> 745 ;
746 [label=<wtd_mean_fie &le; 685.437<br/>squared_error = 12.131<br/>samples = 480<br/>value = 5.686>, fillcolor="#fefaf7"] ;
744 -> 746 ;
747 [label=<wtd_std_FusionHeat &le; 7.612<br/>squared_error = 15.716<br/>samples = 114<br/>value = 7.607>, fillcolor="#fef8f4"] ;
746 -> 747 ;
748 [label=<wtd_gmean_FusionHeat &le; 25.009<br/>squared_error = 7.587<br/>samples = 94<br/>value = 6.495>, fillcolor="#fef9f5"] ;
747 -> 748 ;
749 [label=<wtd_mean_atomic_radius &le; 176.856<br/>squared_error = 5.306<br/>samples = 80<br/>value = 7.226>, fillcolor="#fef8f4"] ;
748 -> 749 ;
750 [label=<entropy_fie &le; 1.096<br/>squared_error = 2.429<br/>samples = 20<br/>value = 5.069>, fillcolor="#fefaf8"] ;
749 -> 750 ;
751 [label=<squared_error = 1.582<br/>samples = 10<br/>value = 3.944>, fillcolor="#fefbf9"] ;
750 -> 751 ;
752 [label=<squared_error = 0.741<br/>samples = 10<br/>value = 6.195>, fillcolor="#fef9f6"] ;
750 -> 752 ;
753 [label=<wtd_std_Density &le; 1093.218<br/>squared_error = 4.198<br/>samples = 60<br/>value = 7.945>, fillcolor="#fdf8f3"] ;
749 -> 753 ;
754 [label=<squared_error = 2.402<br/>samples = 15<br/>value = 5.757>, fillcolor="#fefaf7"] ;
753 -> 754 ;
755 [label=<wtd_range_ElectronAffinity &le; 34.225<br/>squared_error = 2.668<br/>samples = 45<br/>value = 8.675>, fillcolor="#fdf7f2"] ;
753 -> 755 ;
756 [label=<wtd_mean_ThermalConductivity &le; 33.192<br/>squared_error = 0.781<br/>samples = 29<br/>value = 7.957>, fillcolor="#fdf8f3"] ;
755 -> 756 ;
757 [label=<squared_error = 0.765<br/>samples = 17<br/>value = 7.55>, fillcolor="#fef8f4"] ;
756 -> 757 ;
758 [label=<squared_error = 0.236<br/>samples = 12<br/>value = 8.534>, fillcolor="#fdf7f2"] ;
756 -> 758 ;
759 [label=<squared_error = 3.465<br/>samples = 16<br/>value = 9.975>, fillcolor="#fdf6f0"] ;
755 -> 759 ;
760 [label=<squared_error = 0.095<br/>samples = 14<br/>value = 2.316>, fillcolor="#fffdfc"] ;
748 -> 760 ;
761 [label=<wtd_mean_Density &le; 7636.25<br/>squared_error = 20.815<br/>samples = 20<br/>value = 12.832>, fillcolor="#fdf3ec"] ;
747 -> 761 ;
762 [label=<squared_error = 19.398<br/>samples = 10<br/>value = 9.983>, fillcolor="#fdf6f0"] ;
761 -> 762 ;
763 [label=<squared_error = 6.004<br/>samples = 10<br/>value = 15.68>, fillcolor="#fcf0e8"] ;
761 -> 763 ;
764 [label=<std_Density &le; 2578.877<br/>squared_error = 9.507<br/>samples = 366<br/>value = 5.088>, fillcolor="#fefaf8"] ;
746 -> 764 ;
765 [label=<wtd_range_ElectronAffinity &le; 25.075<br/>squared_error = 2.826<br/>samples = 61<br/>value = 2.09>, fillcolor="#fffdfc"] ;
764 -> 765 ;
766 [label=<squared_error = 2.856<br/>samples = 16<br/>value = 3.969>, fillcolor="#fefbf9"] ;
765 -> 766 ;
767 [label=<entropy_ThermalConductivity &le; 0.968<br/>squared_error = 1.112<br/>samples = 45<br/>value = 1.421>, fillcolor="#fffefd"] ;
765 -> 767 ;
768 [label=<wtd_range_ThermalConductivity &le; 40.437<br/>squared_error = 0.211<br/>samples = 21<br/>value = 0.618>, fillcolor="#fffefe"] ;
767 -> 768 ;
769 [label=<squared_error = 0.195<br/>samples = 10<br/>value = 0.961>, fillcolor="#fffefe"] ;
768 -> 769 ;
770 [label=<squared_error = 0.02<br/>samples = 11<br/>value = 0.305>, fillcolor="#ffffff"] ;
768 -> 770 ;
771 [label=<range_Density &le; 3390.0<br/>squared_error = 0.842<br/>samples = 24<br/>value = 2.125>, fillcolor="#fffdfc"] ;
767 -> 771 ;
772 [label=<squared_error = 0.708<br/>samples = 12<br/>value = 2.585>, fillcolor="#fffdfb"] ;
771 -> 772 ;
773 [label=<squared_error = 0.552<br/>samples = 12<br/>value = 1.664>, fillcolor="#fffdfd"] ;
771 -> 773 ;
774 [label=<wtd_mean_ElectronAffinity &le; 54.655<br/>squared_error = 8.686<br/>samples = 305<br/>value = 5.687>, fillcolor="#fefaf7"] ;
764 -> 774 ;
775 [label=<wtd_std_FusionHeat &le; 11.07<br/>squared_error = 16.284<br/>samples = 28<br/>value = 9.08>, fillcolor="#fdf6f2"] ;
774 -> 775 ;
776 [label=<squared_error = 13.992<br/>samples = 11<br/>value = 12.615>, fillcolor="#fdf3ec"] ;
775 -> 776 ;
777 [label=<squared_error = 4.447<br/>samples = 17<br/>value = 6.793>, fillcolor="#fef9f5"] ;
775 -> 777 ;
778 [label=<mean_FusionHeat &le; 27.238<br/>squared_error = 6.637<br/>samples = 277<br/>value = 5.344>, fillcolor="#fefaf7"] ;
774 -> 778 ;
779 [label=<wtd_mean_Valence &le; 2.958<br/>squared_error = 5.47<br/>samples = 80<br/>value = 3.881>, fillcolor="#fefbf9"] ;
778 -> 779 ;
780 [label=<squared_error = 7.555<br/>samples = 11<br/>value = 7.755>, fillcolor="#fef8f4"] ;
779 -> 780 ;
781 [label=<gmean_Density &le; 6387.979<br/>squared_error = 2.364<br/>samples = 69<br/>value = 3.263>, fillcolor="#fefcfa"] ;
779 -> 781 ;
782 [label=<wtd_range_atomic_mass &le; 30.511<br/>squared_error = 2.104<br/>samples = 41<br/>value = 3.93>, fillcolor="#fefbf9"] ;
781 -> 782 ;
783 [label=<squared_error = 0.98<br/>samples = 11<br/>value = 2.483>, fillcolor="#fffdfb"] ;
782 -> 783 ;
784 [label=<wtd_std_ElectronAffinity &le; 52.871<br/>squared_error = 1.466<br/>samples = 30<br/>value = 4.461>, fillcolor="#fefbf8"] ;
782 -> 784 ;
785 [label=<squared_error = 1.79<br/>samples = 17<br/>value = 4.932>, fillcolor="#fefaf8"] ;
784 -> 785 ;
786 [label=<squared_error = 0.375<br/>samples = 13<br/>value = 3.845>, fillcolor="#fefbf9"] ;
784 -> 786 ;
787 [label=<wtd_std_fie &le; 89.56<br/>squared_error = 1.137<br/>samples = 28<br/>value = 2.286>, fillcolor="#fffdfc"] ;
781 -> 787 ;
788 [label=<squared_error = 0.758<br/>samples = 17<br/>value = 2.891>, fillcolor="#fefcfb"] ;
787 -> 788 ;
789 [label=<squared_error = 0.286<br/>samples = 11<br/>value = 1.352>, fillcolor="#fffefd"] ;
787 -> 789 ;
790 [label=<entropy_atomic_mass &le; 0.878<br/>squared_error = 5.888<br/>samples = 197<br/>value = 5.938>, fillcolor="#fef9f6"] ;
778 -> 790 ;
791 [label=<squared_error = 1.065<br/>samples = 19<br/>value = 3.572>, fillcolor="#fefcfa"] ;
790 -> 791 ;
792 [label=<wtd_range_fie &le; 206.594<br/>squared_error = 5.741<br/>samples = 178<br/>value = 6.191>, fillcolor="#fef9f6"] ;
790 -> 792 ;
793 [label=<squared_error = 14.943<br/>samples = 15<br/>value = 8.73>, fillcolor="#fdf7f2"] ;
792 -> 793 ;
794 [label=<wtd_range_Valence &le; 0.885<br/>squared_error = 4.246<br/>samples = 163<br/>value = 5.957>, fillcolor="#fef9f6"] ;
792 -> 794 ;
